\data\
ngram 1=43
ngram 2=1326
ngram 3=18910

\1-grams:
-2.9640374	<unk>	0
0	<s>	-3.6672828
-2.8346353	</s>	0
-1.5321423	HH	-1.0151216
-1.6320165	AE	-1.07315
-1.5321423	D	-1.0211778
-1.5321423	SIL	-1.307544
-1.5211303	L	-1.0645996
-1.5918256	EY	-0.9782818
-1.5669597	B	-0.99512315
-1.5434407	IH	-1.1399224
-1.5792147	F	-0.95292276
-1.6320165	AO	-0.9357406
-1.5434407	R	-0.96174955
-1.5669597	ER	-1.0839697
-1.5434407	AH	-1.1692381
-1.5550411	P	-0.9535329
-1.5792147	EH	-1.0869874
-1.5918256	V	-0.8672744
-1.5669597	T	-1.0551609
-1.5321423	N	-1.037462
-1.6182021	Z	-0.88223386
-1.6462848	AW	-0.83941394
-1.5550411	K	-1.0424279
-1.5550411	S	-1.0544989
-1.5792147	Y	-0.8989118
-1.7434107	UH	-0.63865733
-1.5211303	M	-0.98808634
-1.5550411	IY	-1.0714829
-1.6182021	OW	-1.0093281
-1.5792147	AA	-1.0514745
-1.8451526	DH	-0.613333
-1.6763097	AY	-0.92340046
-1.6320165	UW	-0.9144308
-1.5550411	W	-1.056016
-1.9200423	NG	-0.51438427
-1.5792147	G	-0.93721557
-1.6320165	TH	-0.84259427
-1.6182021	CH	-0.8167245
-1.6182021	SH	-0.8621914
-1.6462848	JH	-0.7765293
-1.8687096	ZH	-0.48992276
-1.7812974	OY	-0.75621474

\2-grams:
-1.5613762	SIL </s>	0
-1.1196779	<s> HH	-2.9645412
-2.3468165	HH HH	-0.28593063
-1.8407458	AE HH	-0.7188761
-1.6177622	D HH	-1.555324
-1.5516565	SIL HH	-4.412813
-1.7303619	L HH	-1.2016408
-1.7713244	EY HH	-1.1345795
-2.2514684	B HH	-1.5290041
-1.7280996	IH HH	-2.38351
-1.9130354	F HH	-0.7598524
-2.211682	AO HH	-0.78027046
-1.9084642	R HH	-1.7588968
-1.6767132	ER HH	-2.3847733
-1.46457	AH HH	-1.8304276
-1.7559452	P HH	-1.287055
-1.7143965	EH HH	-1.5430706
-2.1752176	V HH	-0.5372324
-1.7183093	T HH	-1.4288454
-1.6814345	N HH	-2.072801
-1.8210027	Z HH	-0.5650731
-2.054034	AW HH	-0.5882423
-1.6195582	K HH	-1.0837352
-1.8254776	S HH	-1.6104562
-2.0556467	Y HH	-0.33480614
-1.9156697	UH HH	-0.3151838
-1.9775395	M HH	-1.8184025
-1.7296925	IY HH	-1.7628292
-1.5728412	OW HH	-1.5675824
-1.5250432	AA HH	-0.91855013
-1.8958069	AY HH	-0.7967042
-1.9782405	UW HH	-0.61603945
-2.2444985	W HH	-0.3076837
-1.4342511	NG HH	-1.4394827
-1.6619931	G HH	-0.86699176
-2.1459732	TH HH	-1.4508464
-2.0549784	CH HH	-0.32488415
-2.1563842	SH HH	-0.55072176
-2.0062375	JH HH	-1.0180708
-2.0852098	OY HH	-1.7356896
-1.4755454	<s> AE	-2.5574007
-1.1758407	HH AE	-3.778088
-1.5240786	D AE	-2.4025855
-1.5682125	SIL AE	-3.9064257
-1.4055872	L AE	-3.2193694
-1.3801366	B AE	-2.963715
-1.5230637	F AE	-2.8014727
-1.3909584	R AE	-3.1788397
-1.5893494	ER AE	-1.8389131
-1.356534	P AE	-2.8860416
-1.4142705	V AE	-2.6346684
-1.498968	T AE	-2.8745842
-1.4753821	N AE	-2.3921766
-1.6087343	Z AE	-2.4746656
-1.4407504	K AE	-3.1880085
-1.513401	S AE	-2.8379717
-1.4588144	Y AE	-1.1838166
-1.3207864	M AE	-3.239102
-1.530385	IY AE	-2.1625752
-1.9966294	OW AE	-1.0386971
-1.8231769	DH AE	-4.6012506
-1.5725198	AY AE	-1.724517
-2.1125386	UW AE	-1.7571406
-1.4340875	W AE	-2.037403
-1.3886963	G AE	-2.5468109
-1.6647013	TH AE	-2.240594
-1.4777164	CH AE	-2.558368
-1.5189822	SH AE	-2.7805667
-1.5144597	JH AE	-2.1352336
-1.7242205	ZH AE	-0.3614744
-2.021983	OY AE	-0.7056237
-1.819247	<s> D	-2.2448223
-1.2815688	AE D	-3.4533439
-2.182541	D D	-1.3145514
-1.5756	SIL D	-3.959872
-1.5240271	L D	-3.2952418
-1.3278475	EY D	-3.1628563
-1.6386698	B D	-2.3059127
-1.2961849	IH D	-3.1139727
-2.0905168	F D	-0.69286096
-1.2354589	AO D	-2.0125566
-1.5854462	R D	-3.072387
-1.406604	ER D	-3.2706456
-1.3626314	AH D	-3.3625336
-1.8643887	P D	-1.1581906
-1.3044738	EH D	-3.299778
-1.4678599	V D	-3.18395
-1.9831628	T D	-1.0713711
-1.4873921	N D	-4.0601716
-1.2695367	Z D	-3.053063
-1.2802192	AW D	-2.5490491
-1.753921	K D	-1.1934531
-1.6808038	S D	-1.4470867
-1.1216075	UH D	-3.4439087
-1.5846708	M D	-3.025499
-1.4306264	IY D	-3.022083
-1.3684418	OW D	-2.5651007
-1.3561995	AA D	-2.6578054
-1.0762687	DH D	-2.4820085
-1.3328586	AY D	-3.1212983
-1.286082	UW D	-2.640958
-2.3618536	W D	-0.3151838
-1.5447415	NG D	-2.3373878
-1.6619931	G D	-2.3676274
-1.7756793	TH D	-1.9147274
-1.9213427	CH D	-0.67736346
-1.963859	SH D	-0.48825943
-1.3364	JH D	-3.2263415
-1.5306277	ZH D	-0.4045937
-1.1492448	OY D	-2.4904222
-1.7376329	HH SIL	-0.47229302
-2.1108057	AE SIL	-0.3278651
-1.2395393	D SIL	-4.2872057
-1.7378485	SIL SIL	-0.7900928
-1.5240271	L SIL	-3.7930925
-1.2634066	EY SIL	-3.3345852
-1.4614017	B SIL	-2.0656888
-1.7280996	IH SIL	-0.7000837
-1.388218	F SIL	-3.240051
-1.2560148	AO SIL	-2.3258853
-1.5319179	R SIL	-3.798994
-1.3279759	ER SIL	-3.8773901
-1.2801299	AH SIL	-4.1495576
-1.4561443	P SIL	-3.0867288
-1.5958052	EH SIL	-0.89816326
-1.3016835	V SIL	-3.8358061
-1.3298897	T SIL	-4.289482
-1.3537486	N SIL	-4.148719
-1.1285493	Z SIL	-4.156394
-1.1812656	AW SIL	-2.8383906
-1.3980792	K SIL	-3.4520986
-1.3973249	S SIL	-3.859848
-1.7887635	UH SIL	-0.28593063
-1.3641845	M SIL	-3.683619
-1.3020382	IY SIL	-4.088756
-1.2714388	OW SIL	-3.4392374
-1.3225633	AA SIL	-1.8055966
-1.0762687	DH SIL	-3.1719093
-1.2774009	AY SIL	-3.6438372
-1.2370479	UW SIL	-3.927684
-2.2444985	W SIL	-0.28593063
-0.92286384	NG SIL	-3.704535
-1.4299003	G SIL	-2.338321
-1.1129084	TH SIL	-2.891457
-1.2484902	CH SIL	-3.2173586
-1.2658374	SH SIL	-2.5279975
-1.1924295	JH SIL	-2.7900543
-1.1221716	ZH SIL	-0.62934166
-1.0611039	OY SIL	-2.109289
-1.8712208	<s> L	-2.2398076
-2.2333386	HH L	-0.33480614
-1.2127953	AE L	-2.7921143
-1.4927034	D L	-2.7377293
-1.5510823	SIL L	-4.0132155
-2.3442779	L L	-1.4888556
-1.3101152	EY L	-2.673199
-1.317388	B L	-3.0925164
-1.2957158	IH L	-3.3442106
-1.3459396	F L	-2.9972382
-1.1612203	AO L	-3.320471
-1.7559862	R L	-2.5536115
-1.4674494	ER L	-2.8296523
-1.2797073	AH L	-3.7009091
-1.279769	P L	-3.3478968
-1.2384659	EH L	-3.3093364
-1.539656	V L	-2.3972137
-1.453371	T L	-3.1713579
-1.6229525	N L	-3.121557
-1.4157197	Z L	-1.6350918
-1.2524396	AW L	-1.8748872
-1.3330578	K L	-3.1993704
-1.3511082	S L	-2.9993794
-2.174723	Y L	-0.74701643
-1.0700879	UH L	-2.4240367
-1.6130081	M L	-2.2495408
-1.4298782	IY L	-2.8421097
-1.2855558	OW L	-3.0569856
-1.3060851	AA L	-2.8096488
-1.8984919	DH L	-1.7674814
-1.3127714	AY L	-3.0388212
-1.285312	UW L	-2.507623
-2.3552802	W L	-0.53703254
-1.4315362	NG L	-2.6630647
-1.403986	G L	-2.8937778
-1.3692445	TH L	-2.0220437
-1.6055666	CH L	-1.4800138
-1.6471992	SH L	-2.1442354
-1.5513012	JH L	-2.1014652
-1.148436	OY L	-2.2048848
-2.9749885	<s> EY	-1.1248411
-1.3302115	HH EY	-2.2767801
-1.3840817	D EY	-3.024736
-1.6041713	SIL EY	-2.6092293
-1.3881574	L EY	-3.120766
-1.5182762	B EY	-2.345827
-1.4152608	F EY	-2.7207727
-2.3449092	AO EY	-0.9172438
-1.3371853	R EY	-3.1748827
-1.5070019	ER EY	-2.6039462
-2.5838878	AH EY	-1.0421826
-1.4376928	P EY	-2.7246804
-1.4414661	V EY	-2.4193811
-1.3758572	T EY	-3.1562545
-1.4920315	N EY	-2.8474693
-1.6035311	Z EY	-1.737168
-1.3846536	K EY	-2.9704103
-1.4708819	S EY	-2.9473743
-1.397354	Y EY	-1.4632063
-1.2886037	M EY	-3.1178846
-1.6463611	IY EY	-2.3674798
-2.0698848	OW EY	-0.84679794
-2.4818819	AA EY	-0.3614744
-1.7268744	DH EY	-3.7980099
-2.283876	AY EY	-0.28593063
-1.9166244	UW EY	-2.3614838
-1.0359752	W EY	-3.1533537
-1.8995931	NG EY	-0.42002666
-1.4350225	G EY	-2.7454646
-1.6582266	TH EY	-0.6179647
-1.3649535	CH EY	-2.5831053
-1.3464789	SH EY	-2.276325
-1.5091187	JH EY	-2.0989397
-1.548996	ZH EY	-0.9360726
-1.1972214	<s> B	-2.8346472
-1.3219736	AE B	-2.4675484
-1.6516585	D B	-1.2334975
-1.5418441	SIL B	-4.1676188
-1.6728611	L B	-1.8229356
-1.3858522	EY B	-2.830395
-1.4201292	IH B	-2.26627
-2.0036778	F B	-0.5317186
-1.4391236	AO B	-1.1706529
-1.8094903	R B	-2.1114345
-1.4876044	ER B	-2.0945807
-1.3208153	AH B	-3.241605
-1.8138565	P B	-0.9313126
-1.3629178	EH B	-1.8039379
-2.1956577	V B	-0.6341424
-1.6063882	T B	-1.3574054
-1.655946	N B	-1.7593383
-1.3917181	Z B	-2.2294214
-1.5430744	AW B	-1.163943
-1.6232852	K B	-1.1035584
-1.4884963	S B	-1.6497732
-2.2001781	Y B	-0.28593063
-1.9346735	UH B	-0.28593063
-1.6856005	M B	-2.7523437
-1.5054802	IY B	-1.9450437
-1.370694	OW B	-2.3423538
-1.434836	AA B	-2.424361
-1.4479617	AY B	-2.085486
-1.4825574	UW B	-1.7184657
-1.7083968	NG B	-0.8318903
-1.8261555	G B	-1.0610113
-1.7142112	TH B	-1.2830349
-1.8292952	CH B	-1.1981779
-1.8713673	SH B	-1.0466831
-2.0232413	JH B	-0.3452778
-1.9927886	OY B	-0.86459136
-1.1774671	<s> IH	-2.9079566
-1.1915653	HH IH	-3.7749262
-1.3048795	D IH	-3.6139884
-1.540722	SIL IH	-4.26661
-1.3040128	L IH	-3.3610802
-1.4714851	EY IH	-2.4998753
-1.2851658	B IH	-3.4734414
-2.5093625	IH IH	-0.28593063
-1.2424908	F IH	-3.0727909
-1.5452844	AO IH	-2.5829625
-1.2475141	R IH	-3.5556679
-1.4072931	ER IH	-2.7051518
-1.3145733	P IH	-3.092703
-2.454934	EH IH	-0.3151838
-1.165319	V IH	-3.164062
-1.3305066	T IH	-3.5423417
-1.3132375	N IH	-3.2264395
-1.1768638	Z IH	-2.8454769
-1.5934687	AW IH	-1.6210369
-1.2915715	K IH	-3.118181
-1.352407	S IH	-3.424228
-1.342612	Y IH	-2.689474
-1.2859944	M IH	-3.344373
-1.5905341	IY IH	-2.7893536
-1.4709692	OW IH	-2.875068
-2.1717126	AA IH	-0.5784253
-0.8874555	DH IH	-3.7212331
-1.4721321	AY IH	-2.950943
-1.453899	UW IH	-2.253421
-1.0493565	W IH	-3.7973948
-1.436983	NG IH	-2.616937
-1.338508	G IH	-2.8304815
-1.245015	TH IH	-3.3297048
-1.2029808	CH IH	-2.714946
-1.1459501	SH IH	-2.6093228
-1.1047332	JH IH	-2.553351
-1.443461	ZH IH	-0.8254865
-1.3053159	OY IH	-1.9566067
-1.5651358	<s> F	-2.4667354
-1.3225548	AE F	-2.938504
-1.75832	D F	-1.9754784
-1.5658314	SIL F	-4.0959206
-1.736473	L F	-2.948824
-1.5848247	EY F	-2.1179059
-1.3820271	IH F	-3.257598
-1.3033416	AO F	-2.8292704
-1.7663043	R F	-2.333634
-1.5438595	ER F	-2.4810555
-1.3962294	AH F	-3.0153387
-1.6028036	P F	-1.507925
-1.4532505	EH F	-2.6810308
-2.2920883	V F	-0.3614744
-1.5368168	T F	-2.3132007
-1.6573087	N F	-2.713837
-2.1565726	Z F	-0.8233392
-1.733754	AW F	-0.7786717
-1.6547887	K F	-2.061423
-1.4893868	S F	-2.4650674
-1.8076795	UH F	-1.4950942
-1.7668666	M F	-2.1562777
-1.5937928	IY F	-2.327375
-1.5226469	OW F	-1.8052554
-1.4356287	AA F	-2.2085133
-1.9312756	DH F	-0.7411525
-1.449059	AY F	-2.7517288
-1.4837707	UW F	-1.8881938
-1.4452835	NG F	-1.2021577
-1.8286991	G F	-0.36109352
-1.555602	TH F	-2.1537292
-1.7477611	CH F	-1.4373996
-1.8747255	SH F	-1.3175849
-2.0916598	JH F	-1.1804852
-1.9252439	OY F	-1.7880034
-1.8333625	<s> AO	-2.415912
-1.1950208	HH AO	-2.6970088
-1.4596466	D AO	-2.7411528
-1.5804846	SIL AO	-3.6532233
-1.4055872	L AO	-3.0754423
-2.2994459	EY AO	-0.3076837
-1.3236234	B AO	-2.4967265
-1.4181192	F AO	-3.8661575
-1.4289778	R AO	-2.8014874
-1.9923251	ER AO	-1.2079016
-1.3965808	P AO	-2.7638621
-1.6449163	V AO	-1.671767
-1.6122545	T AO	-2.8660173
-1.5365809	N AO	-2.5210285
-1.5654941	Z AO	-2.33045
-1.4603257	K AO	-3.1018991
-1.6063638	S AO	-2.8578744
-1.6061008	Y AO	-3.4070086
-1.3367208	M AO	-3.174591
-1.8158369	IY AO	-1.6876451
-2.4795735	OW AO	-0.44012254
-2.509194	AA AO	-0.28593063
-1.9594097	DH AO	-1.0421826
-2.3070154	AY AO	-0.9172438
-2.2475388	UW AO	-1.027843
-1.21275	W AO	-2.9852824
-1.5247431	G AO	-2.3905215
-1.4102353	TH AO	-2.9478195
-1.8464881	CH AO	-1.1536126
-1.3494861	SH AO	-2.6490774
-1.9040883	JH AO	-2.0726767
-2.0210903	<s> R	-2.152092
-2.3539038	HH R	-0.40877676
-1.4360731	AE R	-2.6789737
-1.3190858	D R	-3.252639
-1.564054	SIL R	-3.9998305
-1.6999527	L R	-2.2956586
-1.5508358	EY R	-0.9458526
-1.2391877	B R	-3.2683997
-1.3448946	IH R	-3.0897157
-1.3096427	F R	-3.5427172
-1.0992682	AO R	-3.7595959
-2.2636352	R R	-1.1134082
-1.7670428	ER R	-1.0387038
-1.5269355	AH R	-1.3010806
-1.4114492	P R	-3.6566703
-1.2548943	EH R	-3.5528908
-1.4691676	V R	-2.7772374
-1.3883132	T R	-3.5852003
-1.6828797	N R	-2.1179864
-1.7550029	Z R	-1.3242273
-1.2287321	AW R	-1.8566409
-1.4165593	K R	-3.3032067
-1.7142019	S R	-1.3499792
-0.68561596	UH R	-2.7399995
-1.6823485	M R	-1.8106422
-1.5238392	IY R	-2.7443547
-1.7511086	OW R	-0.99444634
-1.2919153	AA R	-3.4464598
-1.787513	DH R	-2.0957413
-1.3337001	AY R	-2.3162327
-1.5699766	UW R	-1.6180348
-1.7652729	NG R	-0.92836213
-1.2452303	G R	-3.486295
-1.245015	TH R	-3.1282456
-2.1194208	CH R	-0.32206202
-1.5983398	SH R	-2.107342
-1.8743746	JH R	-0.61319816
-1.3546774	OY R	-1.2077335
-3.0616806	<s> ER	-1.0897174
-1.1925497	HH ER	-3.3646803
-1.3661728	D ER	-2.9849255
-1.6161839	SIL ER	-2.5971987
-1.3306931	L ER	-2.691871
-1.6159751	EY ER	-1.7945054
-1.2121134	B ER	-2.7757144
-1.228442	F ER	-2.9395604
-2.0223024	AO ER	-0.6831606
-1.764221	R ER	-2.5009313
-1.6543866	ER ER	-2.616874
-2.2665474	AH ER	-1.1369874
-1.3524115	P ER	-2.9822383
-1.2204056	V ER	-3.1993856
-1.3744886	T ER	-3.4012287
-1.3144754	N ER	-2.7728574
-1.2719404	Z ER	-2.499268
-1.2062521	AW ER	-3.1321282
-1.4003134	K ER	-2.5212235
-1.4158947	S ER	-2.9936633
-0.99894005	Y ER	-2.4894502
-1.3172776	M ER	-2.5084162
-1.4861608	IY ER	-2.3808098
-1.6067287	OW ER	-2.023139
-0.8588989	DH ER	-3.3296304
-1.3769847	AY ER	-2.792573
-1.6078086	UW ER	-1.8343048
-1.0651655	W ER	-3.3411825
-1.442499	NG ER	-2.2121286
-1.1987731	G ER	-2.6596875
-1.2047198	TH ER	-2.2921822
-1.0723404	CH ER	-2.8617883
-1.2240984	SH ER	-1.9587977
-1.1949973	JH ER	-2.551441
-0.7624905	ZH ER	-2.4939387
-1.3076414	OY ER	-1.7874526
-0.78672606	<s> AH	-3.1993842
-1.1199843	HH AH	-2.7558577
-1.2648528	D AH	-3.4796958
-1.540722	SIL AH	-4.499335
-1.2799513	L AH	-3.4287224
-1.4044175	EY AH	-1.5994284
-1.2539794	B AH	-3.550242
-1.184345	F AH	-3.1277716
-2.1557627	AO AH	-0.99063337
-1.2221088	R AH	-3.6360276
-1.4219257	ER AH	-2.9649756
-2.5511189	AH AH	-0.28593063
-1.3145733	P AH	-3.2341406
-2.454934	EH AH	-0.28593063
-1.1824647	V AH	-3.1186643
-1.304254	T AH	-3.6990438
-1.2637691	N AH	-3.4670208
-1.1768638	Z AH	-3.2190974
-1.3098978	AW AH	-1.6687322
-1.2652339	K AH	-3.6244218
-1.3111105	S AH	-3.6817632
-0.9192482	Y AH	-3.0036454
-1.1835551	M AH	-3.5804117
-1.4313759	IY AH	-3.1180716
-1.4709692	OW AH	-2.141594
-2.3044157	AA AH	-0.3076837
-0.95376515	DH AH	-4.868873
-1.3143799	AY AH	-2.7141335
-1.4801409	UW AH	-2.6820257
-1.0493565	W AH	-3.4783213
-1.698276	NG AH	-1.0925045
-1.2128887	G AH	-2.820016
-1.1650863	TH AH	-2.1567583
-1.1049247	CH AH	-2.8372662
-1.1121678	SH AH	-3.5675247
-1.0851545	JH AH	-3.094269
-0.7612653	ZH AH	-3.0071821
-1.2609963	OY AH	-2.286642
-1.8889267	<s> P	-2.142936
-1.3015785	AE P	-2.9192789
-1.7960397	D P	-1.1670232
-1.5768161	SIL P	-3.9698322
-1.7679968	L P	-2.2190464
-1.472506	EY P	-2.5097878
-2.4054227	B P	-0.44012254
-1.3808848	IH P	-2.8081822
-2.0000122	F P	-0.80253375
-1.4071932	AO P	-1.1070478
-1.9797225	R P	-2.0766978
-1.6052259	ER P	-2.3840284
-1.3791056	AH P	-3.2318938
-2.3747766	P P	-0.3614744
-1.3829911	EH P	-2.7511938
-2.2750072	V P	-0.44012254
-1.6892707	T P	-1.3072584
-1.7162596	N P	-1.7912606
-2.1444242	Z P	-2.007896
-2.0649061	AW P	-0.7429869
-1.8449287	K P	-0.8082068
-1.3677669	S P	-3.2670975
-2.1936731	Y P	-0.28593063
-1.928246	UH P	-1.8248342
-1.6492879	M P	-3.001227
-1.6164011	IY P	-2.9149468
-1.4955379	OW P	-2.6276722
-1.3403279	AA P	-2.6907036
-1.4732924	AY P	-2.1303287
-1.4550347	UW P	-2.3251028
-1.8763705	NG P	-0.9841906
-2.347965	G P	-1.413194
-1.7813311	TH P	-0.95162225
-2.216026	CH P	-0.28593063
-1.9722172	SH P	-0.6831606
-2.1705737	JH P	-0.83826244
-2.0994117	OY P	-0.28593063
-2.1942987	<s> EH	-1.8445572
-1.1381063	HH EH	-3.0893764
-1.5199279	D EH	-2.9263186
-1.5905924	SIL EH	-3.5260975
-1.4027239	L EH	-3.212601
-2.3293762	EY EH	-0.3821306
-1.2711439	B EH	-3.0269167
-2.5329978	IH EH	-0.3151838
-1.3704017	F EH	-3.0425344
-1.2494156	R EH	-3.4201415
-1.5438595	ER EH	-2.5262275
-2.575461	AH EH	-0.28593063
-1.4142785	P EH	-3.1124985
-1.2406961	V EH	-3.1411223
-1.4574871	T EH	-3.2386034
-1.4185892	N EH	-3.0116475
-1.5204391	Z EH	-2.467543
-2.2402604	AW EH	-3.4488292
-1.5696985	K EH	-2.7590756
-1.4002194	S EH	-3.647362
-1.1240757	Y EH	-2.8666453
-1.3338069	M EH	-3.2949815
-1.6187043	IY EH	-2.0638041
-1.9151065	OW EH	-1.4304767
-2.3223734	AA EH	-0.32488415
-1.7226412	DH EH	-4.2308974
-1.9082786	AY EH	-1.044017
-1.8455714	UW EH	-1.7829628
-1.0655	W EH	-3.476987
-1.4607272	G EH	-3.161466
-1.4383821	TH EH	-1.6529938
-1.3330505	CH EH	-2.288985
-1.2691687	SH EH	-2.2539089
-1.127435	JH EH	-2.8145864
-1.7023127	ZH EH	-0.44012254
-2.605277	<s> V	-1.4956241
-1.3889458	AE V	-3.417058
-1.8019304	D V	-2.6283698
-1.5912213	SIL V	-3.3273406
-1.7380142	L V	-2.5930185
-1.4079266	EY V	-2.8314135
-2.2820718	B V	-2.137882
-1.4213797	IH V	-3.067077
-2.3940992	F V	-0.28593063
-1.5110276	AO V	-1.5977235
-1.9231964	R V	-1.932141
-1.6085012	ER V	-2.701881
-1.413481	AH V	-3.903319
-2.4015007	P V	-0.6162138
-1.2897416	EH V	-3.3493803
-2.1455727	T V	-0.78683764
-1.9325385	N V	-2.703212
-1.7648885	Z V	-1.1989805
-1.9340456	AW V	-0.32206202
-1.9629239	K V	-0.78233343
-1.6293771	S V	-1.2537366
-1.81254	UH V	-0.3076837
-2.0745826	M V	-0.7303978
-1.4343868	IY V	-3.095673
-1.372202	OW V	-2.8591325
-1.3595154	AA V	-2.093164
-1.4250659	AY V	-2.90907
-1.4334598	UW V	-2.561269
-1.7892685	NG V	-0.47924045
-2.3740313	G V	-0.28593063
-2.1802185	TH V	-0.9172438
-1.985064	SH V	-0.72282416
-2.1956277	JH V	-0.3614744
-2.1216252	OY V	-0.28593063
-1.6193887	<s> T	-2.4282885
-1.2649802	AE T	-3.7337527
-1.7565356	D T	-0.8495393
-1.5652381	SIL T	-4.216489
-1.6185583	L T	-2.8705072
-1.2653053	EY T	-3.3035917
-2.0344863	B T	-2.0433538
-1.2681146	IH T	-3.685675
-1.4370531	F T	-3.2007432
-1.2580739	AO T	-3.139411
-1.6857727	R T	-3.078916
-1.470629	ER T	-2.8521178
-1.3208153	AH T	-3.642614
-1.4842174	P T	-3.0048106
-1.1968071	EH T	-3.2024302
-2.0028253	V T	-0.8640749
-2.1375802	T T	-0.36596587
-1.5103164	N T	-3.7252836
-1.5190176	Z T	-0.54690063
-1.121382	AW T	-3.2829413
-1.4560603	K T	-3.376035
-1.2993234	S T	-3.8791661
-1.1246054	UH T	-2.6653357
-1.8107413	M T	-2.1937046
-1.4328787	IY T	-2.9440243
-1.3192388	OW T	-2.6621008
-1.308446	AA T	-3.3496308
-1.3353883	AY T	-3.2319062
-1.3642352	UW T	-2.71916
-1.3529699	NG T	-1.8055239
-1.8953491	G T	-0.735579
-1.7142112	TH T	-1.02942
-1.362645	CH T	-3.217154
-1.4038563	SH T	-2.922541
-1.8826588	JH T	-1.8386961
-1.0630912	OY T	-1.3849921
-1.6142676	<s> N	-2.4967732
-2.3468165	HH N	-0.28593063
-1.2132472	AE N	-3.567136
-1.5638049	D N	-2.192166
-1.5634632	SIL N	-3.9577277
-1.6985404	L N	-1.8606521
-1.2786428	EY N	-3.0890903
-1.8165325	B N	-1.182852
-1.2261368	IH N	-3.800611
-1.8456923	F N	-1.1376389
-1.1617712	AO N	-2.4701505
-1.8523283	R N	-2.6026418
-1.421213	ER N	-2.912851
-1.267784	AH N	-4.218792
-1.6316206	P N	-1.6326667
-1.2389303	EH N	-3.6675913
-1.6814299	V N	-2.6441855
-1.5118195	T N	-2.2353368
-2.0412517	N N	-2.057703
-1.6414434	Z N	-2.4146895
-1.1596882	AW N	-3.3219059
-1.5915873	K N	-2.1748765
-1.5269957	S N	-2.3306708
-1.5398766	UH N	-0.6981333
-1.7590652	M N	-1.7700379
-1.368741	IY N	-2.9717243
-1.3014287	OW N	-3.1507704
-1.2622228	AA N	-3.395726
-1.9048536	DH N	-0.9520059
-1.2951114	AY N	-3.1177335
-1.322145	UW N	-2.699397
-1.6933029	NG N	-1.3958198
-1.5471277	G N	-2.4978762
-1.9580283	TH N	-0.9537923
-1.667373	CH N	-1.0503157
-1.549615	SH N	-1.4866837
-1.7669079	JH N	-1.0766916
-1.6814573	ZH N	-0.28593063
-1.0885435	OY N	-2.7000592
-3.8073847	<s> Z	-0.5928517
-2.278959	HH Z	-0.6831606
-1.3671708	AE Z	-3.7396538
-1.4791387	D Z	-3.3774736
-1.6469414	SIL Z	-1.7966881
-1.6498742	L Z	-3.1618905
-1.2992069	EY Z	-3.0266244
-1.5204666	B Z	-2.723794
-1.2994828	IH Z	-3.8022115
-1.3056383	AO Z	-2.7345417
-1.6253469	R Z	-3.134371
-1.3569138	ER Z	-3.580442
-1.3090795	AH Z	-3.1473527
-2.332167	P Z	-1.5282587
-1.2907877	EH Z	-2.759513
-1.3843477	V Z	-3.425978
-2.3863747	T Z	-0.8891556
-1.5816176	N Z	-3.2626476
-1.1863323	AW Z	-2.684548
-2.5077019	K Z	-0.28593063
-1.7377955	UH Z	-2.1571686
-1.5136795	M Z	-3.1509874
-1.3451027	IY Z	-3.3815227
-1.2905337	OW Z	-3.0780268
-1.4174004	AA Z	-3.752529
-1.1920625	DH Z	-3.0367196
-1.3192419	AY Z	-3.1408753
-1.328047	UW Z	-2.9242134
-1.2220658	NG Z	-3.324814
-1.492732	G Z	-2.7275386
-2.2907522	TH Z	-0.44012254
-1.065755	OY Z	-2.5295863
-2.740037	<s> AW	-2.0423825
-1.1955167	HH AW	-3.0443704
-1.5025133	D AW	-2.9035919
-1.6202022	SIL AW	-3.3476596
-1.6256523	L AW	-2.5274556
-2.3677793	EY AW	-0.3821306
-1.4701135	B AW	-3.0008256
-1.5242826	F AW	-2.7870777
-1.4941994	R AW	-2.7661319
-1.9949853	ER AW	-2.9418662
-1.7750621	P AW	-2.450799
-1.6468835	V AW	-1.8023673
-1.564398	T AW	-2.365755
-1.8012714	N AW	-3.1377037
-2.1885192	Z AW	-0.78480494
-1.6021534	K AW	-2.5275946
-1.8432322	S AW	-2.488423
-2.100138	Y AW	-0.5780439
-1.5964729	M AW	-2.5303543
-2.563008	IY AW	-0.28593063
-2.4893541	OW AW	-0.28593063
-1.8285195	DH AW	-3.0194774
-2.4076807	AY AW	-0.3614744
-2.4045181	UW AW	-2.5282586
-1.6685996	W AW	-1.8782448
-1.72595	G AW	-1.5559785
-1.6668813	TH AW	-3.0329854
-1.8500099	CH AW	-0.7567762
-1.8919169	SH AW	-2.3208952
-2.2314527	JH AW	-0.95153326
-1.7946085	<s> K	-2.2137742
-1.1985968	AE K	-3.065753
-1.6502621	D K	-1.367027
-1.5528071	SIL K	-4.0885115
-1.7013695	L K	-2.0993242
-1.4265616	EY K	-3.0834477
-1.9491022	B K	-0.70239455
-1.2536664	IH K	-3.362384
-1.9190525	F K	-0.71586204
-1.2790339	AO K	-2.6761942
-1.7213409	R K	-2.5955281
-1.5044072	ER K	-2.5764816
-1.3951261	AH K	-3.0511997
-1.714192	P K	-1.3379345
-1.3055559	EH K	-3.2597167
-2.188737	V K	-0.28593063
-1.6314732	T K	-1.5618868
-1.6843297	N K	-2.6150608
-1.8267294	Z K	-0.5723982
-1.5414221	AW K	-0.6914868
-2.4623482	K K	-1.2852206
-1.3530577	S K	-3.1277616
-0.79766697	UH K	-3.0241735
-1.6839714	M K	-0.82656795
-1.4321268	IY K	-2.7887988
-1.3885111	OW K	-2.5371778
-1.3078547	AA K	-2.731652
-1.376055	AY K	-2.8743012
-1.4550347	UW K	-1.859875
-2.3753066	W K	-0.28593063
-1.2137913	NG K	-3.0002816
-2.2630475	G K	-0.5372324
-1.711781	TH K	-1.5651081
-1.8259368	CH K	-1.0294374
-1.7137423	SH K	-1.1270077
-1.7733625	JH K	-0.57972753
-1.4118572	OY K	-0.55072176
-1.3900058	<s> S	-2.5626945
-2.3611085	HH S	-0.3614744
-1.264471	AE S	-3.1930637
-1.4956232	D S	-1.9268345
-1.5646458	SIL S	-4.1852865
-1.6173872	L S	-2.5654435
-1.3470998	EY S	-2.980619
-1.8208963	B S	-2.4561858
-1.2821501	IH S	-3.472214
-1.412421	F S	-2.1495914
-1.2367669	AO S	-2.5032125
-1.7213409	R S	-2.6791975
-1.469832	ER S	-3.094925
-1.2937088	AH S	-3.600313
-1.509493	P S	-2.8157141
-1.2398608	EH S	-3.2736714
-1.5443019	V S	-0.8818601
-1.3591077	T S	-3.307149
-1.5525771	N S	-3.4792538
-2.2889223	Z S	-0.28593063
-1.1827072	AW S	-2.6548421
-1.496711	K S	-3.2555287
-2.3493881	S S	-1.1462711
-1.545126	UH S	-1.323611
-1.6171707	M S	-2.781435
-1.4157537	IY S	-2.7884135
-1.3350284	OW S	-2.8794966
-1.3078547	AA S	-2.5706568
-1.7924321	DH S	-1.2107737
-1.376055	AY S	-2.5888069
-1.3431196	UW S	-2.583992
-1.3507172	NG S	-1.8393695
-1.6234057	G S	-0.97236764
-1.2039665	TH S	-2.3250198
-2.0664666	CH S	-0.44937307
-2.0783331	JH S	-0.32488415
-1.0899539	OY S	-2.7347953
-1.6945041	<s> Y	-2.5007427
-1.4522722	HH Y	-2.8600826
-1.7203271	D Y	-1.7881057
-1.5658314	SIL Y	-3.8654537
-1.6741921	L Y	-2.8660076
-2.0412068	EY Y	-0.6040681
-1.465252	B Y	-2.845073
-2.5329978	IH Y	-0.3614744
-1.4898224	F Y	-2.9858658
-2.0263186	AO Y	-2.3334398
-1.8626326	R Y	-1.0266325
-2.2807639	ER Y	-0.5467329
-1.6884433	AH Y	-0.83314276
-1.5118557	P Y	-2.7737713
-1.4096786	V Y	-2.5002944
-1.6620526	T Y	-1.7623419
-1.6293039	N Y	-2.8356144
-2.1565726	Z Y	-0.44937307
-1.9299918	AW Y	-0.42321217
-1.5446756	K Y	-3.1753232
-1.9893392	S Y	-2.2745705
-1.5617356	M Y	-2.7200837
-1.9478483	IY Y	-0.76748145
-1.7565645	OW Y	-1.2138174
-1.8125212	AA Y	-0.6613169
-1.5510868	DH Y	-0.8794552
-2.2764287	AY Y	-0.48377496
-1.9936863	UW Y	-0.42558903
-1.8917134	NG Y	-0.28593063
-1.5197046	G Y	-2.7052352
-1.6029458	TH Y	-1.8765305
-2.078267	CH Y	-1.5193038
-2.1829746	SH Y	-0.33480614
-1.886861	JH Y	-0.75120306
-1.9984725	OY Y	-0.28593063
-1.2622675	HH UH	-2.3943455
-2.0614402	D UH	-3.2852206
-2.5734966	SIL UH	-0.3452778
-1.8296903	L UH	-3.607509
-1.4760201	B UH	-2.6283684
-1.5630474	F UH	-2.9901445
-1.7899055	R UH	-2.0688229
-2.6503842	ER UH	-1.0685115
-1.9801321	P UH	-3.124081
-2.217442	V UH	-1.0673516
-1.6768749	T UH	-3.2533863
-1.9590546	N UH	-1.8293961
-2.0725026	Z UH	-1.5931838
-1.9910911	K UH	-3.5404325
-2.293669	S UH	-1.4912751
-1.1018114	Y UH	-3.4565225
-1.8924361	M UH	-1.8545225
-1.1947412	W UH	-3.4069295
-1.8577087	G UH	-3.6793594
-2.2580585	TH UH	-0.33480614
-1.5330136	CH UH	-1.8029869
-1.8211821	SH UH	-3.491618
-1.7250448	JH UH	-1.9597318
-1.7654382	ZH UH	-0.28593063
-1.6195055	<s> M	-2.4292667
-2.3398433	HH M	-0.44012254
-1.2455784	AE M	-2.839262
-1.5626638	D M	-2.3513072
-1.5749934	SIL M	-4.1192594
-1.6675776	L M	-2.4807992
-1.3632535	EY M	-3.0847998
-2.020374	B M	-1.8451334
-1.3791769	IH M	-3.3550503
-1.6882935	F M	-1.1997733
-1.4679754	AO M	-0.963256
-1.7157285	R M	-2.7698538
-1.4842985	ER M	-2.5882347
-1.318962	AH M	-3.5233185
-1.6675429	P M	-1.9224577
-1.2866186	EH M	-3.2061749
-1.8863858	V M	-2.6912234
-1.5318806	T M	-2.5256808
-1.7115949	N M	-1.9277838
-1.3360406	Z M	-1.939483
-1.2793163	AW M	-1.1312909
-1.6481323	K M	-1.6387796
-1.505003	S M	-2.839439
-1.5372754	UH M	-3.0924494
-2.26402	M M	-0.55072176
-1.4827701	IY M	-2.793711
-1.3165727	OW M	-2.6563127
-1.3555394	AA M	-2.6727703
-1.7778391	DH M	-1.1802014
-1.4435997	AY M	-3.0394988
-1.3816018	UW M	-2.7799869
-2.2394726	W M	-0.9841906
-1.5412433	NG M	-1.0991577
-1.5134875	G M	-1.6495695
-1.6455595	TH M	-1.1160746
-1.5065676	CH M	-2.1644907
-1.467338	SH M	-2.2280908
-1.6112539	JH M	-2.80537
-1.6763961	ZH M	-0.9520059
-1.7481546	OY M	-2.3949325
-2.4168427	<s> IY	-1.7381759
-1.2328693	HH IY	-3.6306522
-1.3818216	D IY	-3.070207
-1.6292247	SIL IY	-2.9932787
-1.2689267	L IY	-3.579038
-2.1323166	EY IY	-0.74701643
-1.2397627	B IY	-3.2624373
-1.2589928	F IY	-2.635718
-2.3204062	AO IY	-0.28593063
-1.2105229	R IY	-3.505589
-1.4226394	ER IY	-2.819309
-2.4650629	AH IY	-0.83826244
-1.2818565	P IY	-2.8932328
-1.2809541	V IY	-2.3947036
-1.3738059	T IY	-3.204109
-1.3138561	N IY	-3.0842617
-1.2312337	Z IY	-2.4051583
-1.6568944	AW IY	-0.9281822
-1.2921531	K IY	-2.4563
-1.3677669	S IY	-3.1625009
-1.5962011	Y IY	-2.1627707
-1.3323573	M IY	-3.1854742
-2.366372	IY IY	-0.3452778
-1.6054344	OW IY	-1.6203622
-1.5821832	AA IY	-0.89071584
-1.4241761	DH IY	-3.1094217
-1.9820588	AY IY	-1.0261555
-1.5393003	UW IY	-1.6243424
-1.149707	W IY	-3.197219
-1.7711486	NG IY	-0.8254865
-1.3831742	G IY	-1.6540335
-1.1844511	TH IY	-2.1496315
-1.2037785	CH IY	-2.1733162
-1.2913831	SH IY	-3.259712
-1.1941397	JH IY	-2.2073874
-1.1249896	ZH IY	-1.0878676
-2.0994117	OY IY	-0.85925186
-2.1102593	<s> OW	-1.900188
-1.1224933	HH OW	-2.946406
-1.4392729	D OW	-2.6909459
-1.579871	SIL OW	-3.2683794
-1.374732	L OW	-2.9293199
-1.7857988	EY OW	-1.0305793
-1.2890148	B OW	-2.4445028
-1.3328767	F OW	-2.197944
-1.2785553	R OW	-2.9565983
-1.567004	ER OW	-1.9892554
-1.3956733	P OW	-2.701936
-2.5033891	EH OW	-0.28593063
-1.3843477	V OW	-2.0957541
-1.4249642	T OW	-2.7118294
-1.4044887	N OW	-3.2705655
-1.4247632	Z OW	-1.2226801
-1.4033104	K OW	-2.4164965
-1.4539545	S OW	-3.2427394
-1.125729	Y OW	-1.5837952
-1.4256572	M OW	-2.893707
-1.453066	IY OW	-1.8062142
-2.4998977	AA OW	-0.28593063
-1.559685	DH OW	-3.7559617
-1.5076727	AY OW	-1.3352486
-2.107401	UW OW	-0.7734737
-1.3368073	W OW	-2.2629325
-1.3229312	G OW	-2.8991964
-1.560706	TH OW	-1.6254452
-1.3672745	CH OW	-1.9763026
-1.3484814	SH OW	-2.4707017
-1.3810846	JH OW	-2.0111237
-1.7746677	OY OW	-0.88244855
-2.0135593	<s> AA	-2.0785487
-1.1930428	HH AA	-2.8313534
-1.4763273	D AA	-2.666915
-1.6035234	SIL AA	-3.5542655
-1.3446741	L AA	-2.6406817
-2.2728329	EY AA	-1.3840501
-1.3574425	B AA	-2.7059195
-2.5329978	IH AA	-3.0592158
-1.4380528	F AA	-3.0003526
-1.3206451	R AA	-2.7888792
-1.5438595	ER AA	-1.5850927
-1.3532329	P AA	-3.175124
-1.3052604	V AA	-2.097256
-1.4574871	T AA	-2.7127047
-1.4356136	N AA	-3.3382812
-1.2942427	Z AA	-1.8959523
-2.2402604	AW AA	-1.1168162
-1.3362672	K AA	-3.1108298
-1.5096484	S AA	-2.4549053
-0.9387391	Y AA	-2.007396
-1.3338069	M AA	-2.810265
-1.5478858	IY AA	-1.8981259
-1.8555942	OW AA	-1.0078832
-2.4731467	AA AA	-0.3614744
-1.8024404	DH AA	-0.55072176
-1.7806525	AY AA	-1.0675561
-1.7353271	UW AA	-0.504905
-1.0214789	W AA	-3.5597482
-1.783144	NG AA	-0.3151838
-1.2306855	G AA	-2.8261733
-1.4383821	TH AA	-1.19556
-1.432711	CH AA	-2.481379
-1.2464457	SH AA	-2.3653028
-1.3411815	JH AA	-2.270355
-1.2604655	ZH AA	-1.4525559
-0.84900767	<s> DH	-3.4670258
-1.7542542	AE DH	-2.949157
-1.5633029	SIL DH	-4.7170463
-2.6887913	L DH	-3.0695322
-1.8140308	EY DH	-1.6197217
-1.8517104	IH DH	-3.823312
-1.9706525	R DH	-2.1314251
-2.372189	ER DH	-2.7707899
-1.7408694	AH DH	-3.5937047
-1.7431011	EH DH	-3.0943472
-2.4799898	N DH	-0.5993035
-2.3974543	AW DH	-2.6871748
-2.6087756	M DH	-0.28593063
-1.9891745	IY DH	-2.7627726
-1.9594814	OW DH	-2.1194217
-1.9673554	AA DH	-3.1223814
-1.7634306	AY DH	-1.476508
-2.341673	UW DH	-1.9445102
-2.1012757	OY DH	-0.28593063
-1.2977811	<s> AY	-2.8263562
-1.2599591	HH AY	-2.526815
-1.6035031	D AY	-2.4063451
-1.5700068	SIL AY	-3.6004922
-1.3355556	L AY	-3.3001719
-1.497675	B AY	-3.150031
-1.3981465	F AY	-2.9775
-1.3936063	R AY	-3.0924306
-1.5505207	ER AY	-2.436109
-1.4932021	P AY	-2.4752831
-1.4489014	V AY	-2.4580019
-1.4820873	T AY	-3.0193393
-1.4976649	N AY	-2.7784016
-1.5305218	Z AY	-2.4419932
-1.6045368	K AY	-2.396417
-1.4392477	S AY	-3.0120795
-2.1106758	Y AY	-0.28593063
-1.5180963	M AY	-3.443992
-2.5838127	IY AY	-0.3614744
-1.839406	DH AY	-2.836667
-2.4281328	AY AY	-0.28593063
-2.33111	UW AY	-0.55072176
-1.1727105	W AY	-3.1229455
-1.5620552	G AY	-1.9039978
-1.896323	TH AY	-1.3901652
-1.4822414	CH AY	-2.445216
-1.4834671	SH AY	-1.9612528
-1.5753541	JH AY	-1.8268197
-4.458894	<s> UW	-0.53703254
-1.4558717	HH UW	-3.0388026
-1.4800799	D UW	-2.915136
-1.7449636	SIL UW	-1.1446772
-1.455206	L UW	-2.664154
-2.2994459	EY UW	-1.2241377
-1.6144059	B UW	-1.7377136
-1.6617327	F UW	-2.357102
-1.293541	R UW	-2.9999268
-1.778237	ER UW	-1.4737276
-1.5166202	P UW	-1.6853086
-1.7604551	V UW	-1.0002792
-1.4608083	T UW	-3.924294
-1.5827657	N UW	-2.6683624
-1.5654941	Z UW	-1.7481594
-1.6009666	K UW	-2.0309615
-1.5348434	S UW	-2.5018194
-0.839326	Y UW	-3.489073
-1.5666721	M UW	-2.5363836
-1.7772354	IY UW	-1.1212156
-2.4114034	AA UW	-1.7850058
-2.246985	AY UW	-0.8807575
-2.3945107	UW UW	-0.28593063
-1.7338423	W UW	-1.7858598
-1.9241277	NG UW	-0.28593063
-1.5247431	G UW	-1.5094817
-1.8853432	TH UW	-2.0015209
-1.2314765	CH UW	-2.2436619
-1.3222889	SH UW	-2.0068629
-1.3124427	JH UW	-2.2046726
-1.464566	ZH UW	-1.277595
-1.0601599	<s> W	-3.0808523
-1.9070302	HH W	-0.83068216
-2.335195	AE W	-0.9172438
-1.5413125	D W	-2.262229
-1.5528071	SIL W	-4.485989
-1.6436174	L W	-2.6857
-1.9533854	EY W	-1.1675982
-1.8208963	B W	-1.1010432
-2.0112765	IH W	-2.1556718
-1.85084	F W	-0.89374596
-2.018323	AO W	-1.2083021
-1.9142972	R W	-2.2700546
-1.5620521	ER W	-2.2118452
-1.4290569	AH W	-3.0640473
-1.6726589	P W	-1.6503931
-2.2978117	EH W	-0.72105664
-1.4704791	V W	-1.1134162
-1.4381435	T W	-2.8679874
-1.6843297	N W	-2.1281757
-1.2925545	Z W	-1.348138
-1.7286484	AW W	-0.6519854
-1.3995674	K W	-3.2728596
-1.4498655	S W	-2.7043025
-2.0651472	Y W	-0.7411525
-1.6171707	M W	-2.286491
-1.6164011	IY W	-2.1128585
-1.799206	OW W	-1.5558523
-1.7194538	AA W	-0.9352979
-1.7759624	AY W	-1.3203977
-1.7821035	UW W	-0.84067565
-1.3507172	NG W	-0.92995816
-1.517207	G W	-2.2679615
-1.3725609	TH W	-1.8062817
-1.3944046	CH W	-1.6052184
-1.6001275	SH W	-1.207519
-1.7733625	JH W	-0.68610346
-1.5378821	ZH W	-1.2530359
-1.2574304	AE NG	-2.9062219
-2.6849613	D NG	-0.28593063
-1.9450868	EY NG	-0.9023709
-1.222402	IH NG	-3.9477992
-1.3696042	AO NG	-2.882769
-2.5160673	R NG	-0.48377496
-2.6361182	ER NG	-0.3614744
-1.4797002	AH NG	-3.0363774
-1.4192532	EH NG	-2.4853501
-2.7182825	S NG	-0.28593063
-1.9108568	UH NG	-0.53703254
-2.3586576	IY NG	-0.9683963
-2.143572	OW NG	-0.8694836
-1.4732819	AA NG	-2.1799302
-2.3652039	AY NG	-0.33480614
-2.1979349	UW NG	-0.8102337
-2.1274886	<s> G	-1.937753
-1.2836909	AE G	-2.3964996
-1.8975432	D G	-1.3952031
-1.5780355	SIL G	-3.7753825
-1.8092052	L G	-1.6333132
-1.474555	EY G	-1.761423
-2.2757761	B G	-0.5221597
-1.3464726	IH G	-2.8867922
-2.0073748	F G	-1.0411657
-1.4401686	AO G	-1.9888016
-1.8626326	R G	-2.2121243
-1.5640261	ER G	-2.2180912
-1.3801689	AH G	-2.9507217
-2.1240494	P G	-0.63128716
-1.3635365	EH G	-2.4048812
-2.2026908	V G	-0.85175174
-1.7592599	T G	-1.294914
-1.7541226	N G	-2.0317283
-1.9162194	Z G	-1.1550807
-1.733754	AW G	-0.5449654
-2.3961732	K G	-1.4707605
-1.9308642	S G	-1.8973676
-1.7256224	UH G	-2.144428
-2.0706036	M G	-0.75573057
-1.5478858	IY G	-2.1010664
-1.4095528	OW G	-1.5315732
-1.3416035	AA G	-2.0704682
-1.4756222	AY G	-1.5317371
-1.5119431	UW G	-1.2910272
-1.0682597	NG G	-2.8649666
-2.3651676	G G	-0.53703254
-2.2640169	TH G	-0.6162138
-2.078267	CH G	-0.32206202
-2.2767615	SH G	-0.3614744
-1.9984725	OY G	-0.6162138
-2.3918781	<s> TH	-1.8953482
-1.4984317	AE TH	-2.2083387
-2.036988	D TH	-1.4926474
-1.606121	SIL TH	-3.4961758
-2.087011	L TH	-2.181152
-1.6977586	EY TH	-2.0636218
-2.459161	B TH	-0.28593063
-1.2848853	IH TH	-2.5787969
-2.0224855	F TH	-1.7060132
-1.5547161	AO TH	-1.9692906
-2.0007029	R TH	-2.321368
-1.6605198	ER TH	-2.3065948
-1.4508129	AH TH	-2.5918453
-2.1438968	P TH	-1.9545379
-1.3660201	EH TH	-2.4254239
-2.23202	V TH	-0.5784253
-2.2598636	T TH	-1.6107464
-1.7993743	N TH	-2.3036175
-1.6066811	AW TH	-1.9902619
-2.041504	K TH	-2.5857399
-2.0007637	S TH	-1.3050762
-1.8274571	UH TH	-0.9172438
-2.1892073	M TH	-3.0002499
-1.678542	IY TH	-2.7797763
-1.8114917	OW TH	-2.5096269
-1.5329106	AA TH	-1.5101336
-1.8507376	AY TH	-0.79615927
-1.615968	UW TH	-2.369576
-1.7347814	NG TH	-1.6122186
-2.4017625	G TH	-0.8380625
-2.1450365	OY TH	-0.44012254
-2.3880703	<s> CH	-1.8199567
-1.4147377	AE CH	-2.5392492
-2.349623	D CH	-1.044562
-1.6054701	SIL CH	-3.1926193
-1.9555275	L CH	-1.5971127
-1.6960452	EY CH	-2.8044395
-2.44973	B CH	-0.28593063
-1.4653492	IH CH	-3.2921398
-2.123188	F CH	-0.66034466
-2.0385947	AO CH	-0.81731814
-1.9292322	R CH	-2.4742243
-1.7441838	ER CH	-2.3962188
-1.5314367	AH CH	-3.098999
-1.8834741	P CH	-2.1787262
-1.6032677	EH CH	-2.3322232
-2.162401	V CH	-0.28593063
-1.9436299	T CH	-0.6028117
-1.8393908	N CH	-2.5722492
-1.4171714	AW CH	-1.7216846
-1.9684131	K CH	-2.7231588
-1.6906108	S CH	-2.6219065
-1.961379	UH CH	-2.0083241
-2.3165314	M CH	-1.3391246
-1.5508386	IY CH	-2.8390863
-1.862546	OW CH	-2.2604237
-1.5319194	AA CH	-2.1403477
-2.2401397	AY CH	-1.8056722
-1.5789596	UW CH	-2.0163915
-1.8017825	NG CH	-0.85925186
-2.1317904	TH CH	-0.6162138
-2.2591686	CH CH	-0.3614744
-2.1370916	OY CH	-0.28593063
-1.6889713	<s> SH	-2.375126
-1.3671708	AE SH	-2.3977673
-1.8059024	D SH	-1.846958
-1.579871	SIL SH	-3.6250901
-2.0148497	L SH	-1.5355825
-1.3330055	EY SH	-3.482141
-2.44973	B SH	-0.28593063
-1.3150781	IH SH	-3.068511
-1.9344705	F SH	-0.5670726
-1.6460736	AO SH	-1.9458922
-1.8705246	R SH	-2.172052
-1.5273064	ER SH	-1.8738911
-1.4501871	AH SH	-2.4234033
-1.7237339	P SH	-2.4216368
-1.3653979	EH SH	-2.6765583
-2.2245	V SH	-0.3151838
-2.0030346	T SH	-0.7518764
-1.7592702	N SH	-2.6070907
-2.0933404	AW SH	-0.62733215
-1.6588321	K SH	-2.992836
-2.0669258	S SH	-1.0401661
-1.3341658	UH SH	-2.0666773
-1.7728109	M SH	-0.798008
-1.6221823	IY SH	-1.9970136
-1.3924499	OW SH	-2.3329408
-1.4380149	AA SH	-2.0643594
-1.7877839	AY SH	-0.8978889
-1.51585	UW SH	-2.4147267
-1.8017825	NG SH	-1.1052343
-1.9923198	G SH	-0.77641517
-2.2907522	TH SH	-1.3943651
-2.015985	OY SH	-0.28593063
-2.2423253	<s> JH	-1.911373
-1.5309696	AE JH	-2.6483276
-2.512703	D JH	-0.28593063
-1.5937462	SIL JH	-3.369855
-2.0207307	L JH	-2.2704346
-1.4557561	EY JH	-2.6212204
-2.3082085	B JH	-2.612762
-1.4039564	IH JH	-2.6825216
-1.8431139	AO JH	-0.97471476
-2.0862978	R JH	-2.6800578
-1.6884099	ER JH	-2.3267112
-1.3672572	AH JH	-2.8208573
-2.2875412	P JH	-0.4045937
-1.5104953	EH JH	-2.3564193
-2.3379838	V JH	-0.3151838
-2.0787337	T JH	-1.1090258
-1.694618	N JH	-2.8389437
-2.3517363	Z JH	-0.3614744
-2.1749022	AW JH	-0.36596587
-2.434822	K JH	-0.49127507
-2.3971276	S JH	-1.1391621
-2.2413979	Y JH	-0.28593063
-2.4796116	M JH	-0.31910086
-1.5754277	IY JH	-2.0221279
-1.6145757	OW JH	-1.3423231
-1.5339041	AA JH	-2.0341754
-1.6916372	AY JH	-2.05338
-1.5184742	UW JH	-2.084471
-2.4114141	G JH	-2.6705713
-2.2314527	JH JH	-0.28593063
-4.734469	<s> ZH	-0.6162138
-2.4671223	AE ZH	-1.7033639
-1.8387738	SIL ZH	-1.6198179
-1.6423587	EY ZH	-2.7789755
-2.0602074	IH ZH	-2.6228113
-2.5057836	AO ZH	-0.3151838
-2.4932055	R ZH	-1.471531
-2.2612822	ER ZH	-2.394365
-2.5256455	AH ZH	-1.1189966
-2.1021094	EH ZH	-2.9882047
-2.6803634	N ZH	-1.4508464
-2.689083	S ZH	-0.28593063
-1.7278993	IY ZH	-1.4455175
-1.8965458	OW ZH	-1.9539467
-1.9700623	AA ZH	-0.97951466
-2.5479455	AY ZH	-0.28593063
-1.7236655	UW ZH	-2.775095
-2.5478964	G ZH	-2.4015436
-4.3230815	<s> OY	-0.6119122
-2.2572038	HH OY	-1.1491394
-1.9943027	D OY	-1.0140057
-1.700821	SIL OY	-2.01516
-1.7231952	L OY	-1.932234
-1.4780068	B OY	-2.5236025
-1.8915248	F OY	-1.093933
-1.6407106	R OY	-2.126859
-2.0168753	ER OY	-1.1754911
-1.5883111	P OY	-2.687068
-1.6130561	V OY	-2.6181366
-1.9697332	T OY	-1.6814451
-1.7403657	N OY	-2.1114905
-2.3192759	Z OY	-0.3076837
-1.8772813	K OY	-1.5805783
-2.1918206	S OY	-1.812572
-1.8977238	M OY	-1.469787
-2.249658	W OY	-1.1721413
-2.0311918	G OY	-1.3550858
-2.3609273	CH OY	-2.435598
-2.282718	SH OY	-0.28593063
-1.3944649	JH OY	-2.547303

\3-grams:
-1.2922075	HH SIL </s>
-1.0781811	AE SIL </s>
-1.5713718	D SIL </s>
-0.92900676	SIL SIL </s>
-1.4064326	L SIL </s>
-1.419147	EY SIL </s>
-1.1596668	B SIL </s>
-1.8070077	IH SIL </s>
-1.2958645	F SIL </s>
-1.4640925	AO SIL </s>
-1.615226	R SIL </s>
-1.3352629	ER SIL </s>
-2.3922148	AH SIL </s>
-1.2739083	P SIL </s>
-0.9267885	EH SIL </s>
-2.163161	V SIL </s>
-1.5286129	T SIL </s>
-1.4453077	N SIL </s>
-1.4359806	Z SIL </s>
-1.4715278	AW SIL </s>
-1.3902003	K SIL </s>
-1.2448179	S SIL </s>
-1.2706709	M SIL </s>
-1.4634671	IY SIL </s>
-1.4687018	OW SIL </s>
-1.2116975	AA SIL </s>
-2.363284	DH SIL </s>
-2.0638452	AY SIL </s>
-1.9557813	UW SIL </s>
-0.7570031	W SIL </s>
-1.508735	NG SIL </s>
-1.2228925	G SIL </s>
-1.1379778	TH SIL </s>
-1.7479379	CH SIL </s>
-1.3795303	SH SIL </s>
-1.193146	JH SIL </s>
-1.1812483	ZH SIL </s>
-1.1362778	OY SIL </s>
-2.3996878	EY HH HH
-5.418605	SIL AE HH
-4.72409	L AE HH
-4.054783	R AE HH
-4.3623505	T AE HH
-3.4009447	N AE HH
-3.7695928	M AE HH
-2.8285403	G AE HH
-2.8325286	AE D HH
-2.484419	L D HH
-4.333317	IH D HH
-3.360879	AO D HH
-4.042358	R D HH
-4.5215106	ER D HH
-3.0131042	AH D HH
-4.044826	EH D HH
-4.2209105	N D HH
-3.8826284	AW D HH
-3.2244098	UH D HH
-3.7046294	OW D HH
-2.8994455	AA D HH
-3.7401876	AY D HH
-4.0402184	UW D HH
-1.2904285	HH SIL HH
-1.076665	AE SIL HH
-1.0994018	D SIL HH
-1.0327615	SIL SIL HH
-1.2188554	L SIL HH
-1.0597496	EY SIL HH
-1.1025735	B SIL HH
-0.9440164	IH SIL HH
-1.1130322	F SIL HH
-0.8908683	AO SIL HH
-1.1404583	R SIL HH
-1.1466746	ER SIL HH
-1.3379803	AH SIL HH
-1.1796108	P SIL HH
-1.0927546	EH SIL HH
-1.0634167	V SIL HH
-1.0995978	T SIL HH
-1.0826895	N SIL HH
-1.1914749	Z SIL HH
-1.1376281	AW SIL HH
-1.1457549	K SIL HH
-1.2758594	S SIL HH
-1.189683	M SIL HH
-1.0984195	IY SIL HH
-1.1634934	OW SIL HH
-0.9692394	AA SIL HH
-0.8914509	DH SIL HH
-0.9716683	AY SIL HH
-1.0264306	UW SIL HH
-1.1305144	NG SIL HH
-1.1459299	G SIL HH
-1.2109313	TH SIL HH
-1.0021567	CH SIL HH
-1.2557474	SH SIL HH
-1.2698113	JH SIL HH
-1.2986257	ZH SIL HH
-1.0289671	OY SIL HH
-2.3570683	AE L HH
-3.901404	EY L HH
-3.4876049	IH L HH
-2.964584	ER L HH
-3.9185295	AH L HH
-4.471674	EH L HH
-4.3961997	K L HH
-3.3000808	UH L HH
-4.333326	IY L HH
-3.4761276	OW L HH
-4.333423	AA L HH
-4.4963894	AY L HH
-2.5510201	UW L HH
-3.4802337	SIL EY HH
-4.0069423	L EY HH
-2.9528885	R EY HH
-4.4765296	K EY HH
-3.240536	S EY HH
-3.238572	M EY HH
-4.6280603	W EY HH
-3.7232723	SH EY HH
-3.2523708	JH EY HH
-2.5272675	AE B HH
-3.0797467	AH B HH
-3.8533382	AA B HH
-3.9483616	D IH HH
-5.711948	SIL IH HH
-3.1558337	L IH HH
-1.3516674	B IH HH
-2.315028	R IH HH
-3.5737987	ER IH HH
-4.2984905	T IH HH
-3.4466908	N IH HH
-4.57341	K IH HH
-3.6409707	M IH HH
-4.1237483	CH IH HH
-4.4989166	AE F HH
-3.017195	L F HH
-4.842563	IH F HH
-3.285115	AO F HH
-4.275429	AH F HH
-4.2457266	AY F HH
-3.2874374	R AO HH
-3.8471093	N AO HH
-3.3016195	L R HH
-3.5451267	IH R HH
-2.6564531	AO R HH
-3.3621695	EH R HH
-4.842328	T R HH
-3.5446904	UH R HH
-3.6502066	AA R HH
-3.6051373	HH ER HH
-2.9567194	D ER HH
-4.017171	L ER HH
-1.7234968	B ER HH
-3.1950433	F ER HH
-1.0788206	P ER HH
-2.2702916	V ER HH
-3.6092315	T ER HH
-4.259577	N ER HH
-3.9166064	Z ER HH
-4.032183	K ER HH
-3.3068593	Y ER HH
-3.3346987	M ER HH
-3.322113	OW ER HH
-2.8732405	DH ER HH
-3.2797954	G ER HH
-3.4996555	<s> AH HH
-3.8703809	D AH HH
-3.2643063	SIL AH HH
-2.9136114	L AH HH
-3.5391915	B AH HH
-4.2805595	F AH HH
-2.7253616	R AH HH
-4.0217705	ER AH HH
-3.0119984	P AH HH
-3.3389173	V AH HH
-3.9139745	T AH HH
-3.663195	N AH HH
-2.504674	AW AH HH
-3.1467824	K AH HH
-3.549209	S AH HH
-3.3943303	Y AH HH
-2.9858036	M AH HH
-3.8371832	IY AH HH
-3.5925999	AY AH HH
-3.8780491	UW AH HH
-3.398177	W AH HH
-3.0985875	G AH HH
-2.5708215	JH AH HH
-3.0804203	AE P HH
-3.6901734	IH P HH
-2.8384838	AH P HH
-4.047745	EH P HH
-2.9950001	S P HH
-3.8520591	M P HH
-4.018238	AA P HH
-2.5328815	UW P HH
-1.7366823	TH P HH
-4.974395	SIL EH HH
-4.4866595	L EH HH
-1.8005443	B EH HH
-3.8394022	R EH HH
-4.6959167	T EH HH
-4.392504	M EH HH
-4.4745827	W EH HH
-2.810162	CH EH HH
-2.7506912	SH EH HH
-2.8468685	JH EH HH
-4.0651193	AE V HH
-4.6398087	EH V HH
-4.004926	AE T HH
-5.196656	IH T HH
-4.587206	F T HH
-3.170598	R T HH
-4.532217	N T HH
-3.6743321	AW T HH
-3.751363	S T HH
-2.3473911	UH T HH
-2.5945282	IY T HH
-4.1414356	OW T HH
-4.135503	AA T HH
-2.6628652	AY T HH
-3.3916197	UW T HH
-3.1038442	AE N HH
-4.049071	EY N HH
-2.4645486	IH N HH
-3.1693923	R N HH
-3.4233658	ER N HH
-2.8905873	AH N HH
-2.848852	P N HH
-3.1791844	EH N HH
-3.485429	AW N HH
-3.2712166	IY N HH
-3.691854	OW N HH
-3.8967614	AA N HH
-4.3223095	AY N HH
-3.6332533	UW N HH
-4.501334	D Z HH
-5.0000277	IH Z HH
-3.972053	AH Z HH
-4.832783	IY Z HH
-3.6960409	UW Z HH
-3.4052498	G Z HH
-4.414001	D AW HH
-3.7940676	T AW HH
-2.7206483	K AW HH
-3.6126065	AE K HH
-2.34674	L K HH
-4.227893	EY K HH
-4.6634808	IH K HH
-3.7750864	R K HH
-2.472431	ER K HH
-3.8940687	AH K HH
-4.481558	EH K HH
-3.8263187	S K HH
-4.1308403	UH K HH
-3.3991666	OW K HH
-2.5761144	AA K HH
-3.3321297	AY K HH
-2.6162271	UW K HH
-3.1389894	NG K HH
-3.3273194	AE S HH
-1.930555	L S HH
-4.319467	EY S HH
-3.252579	IH S HH
-3.3165116	R S HH
-5.192839	AH S HH
-3.881893	T S HH
-1.4071685	AW S HH
-3.1289923	K S HH
-4.0936136	UW S HH
-1.7761959	R Y HH
-4.2985797	N Y HH
-2.2829614	M UH HH
-4.136437	AE M HH
-2.5585058	L M HH
-2.6207182	R M HH
-2.5590582	AH M HH
-4.4107	IY M HH
-4.3187366	AY M HH
-3.971562	D IY HH
-3.998835	SIL IY HH
-3.2988985	L IY HH
-3.308629	B IY HH
-3.96116	F IY HH
-2.59566	R IY HH
-3.8737872	ER IY HH
-4.404728	P IY HH
-1.7126328	V IY HH
-2.351772	N IY HH
-1.6460118	K IY HH
-3.7716017	S IY HH
-4.682996	M IY HH
-2.8226743	<s> OW HH
-4.110557	HH OW HH
-2.7156494	SIL OW HH
-3.5855465	L OW HH
-2.0824416	B OW HH
-2.5329921	R OW HH
-4.076173	P OW HH
-3.8364618	T OW HH
-3.7179363	N OW HH
-1.8804914	K OW HH
-3.658829	S OW HH
-2.0418444	Y OW HH
-2.2798676	M OW HH
-4.27225	G OW HH
-2.406375	JH OW HH
-2.717257	<s> AA HH
-4.166664	HH AA HH
-4.0135927	D AA HH
-3.5446553	SIL AA HH
-3.447076	L AA HH
-3.200836	B AA HH
-3.2288404	R AA HH
-2.7141392	ER AA HH
-4.285576	P AA HH
-3.1986861	V AA HH
-4.204419	N AA HH
-4.2350903	K AA HH
-3.2835422	Y AA HH
-2.7388775	M AA HH
-4.0571	W AA HH
-3.7797935	G AA HH
-3.5595179	JH AA HH
-5.1853685	SIL AY HH
-3.817912	B AY HH
-4.689951	R AY HH
-4.3307767	T AY HH
-3.5998464	M AY HH
-3.9492655	W AY HH
-3.4270608	R UW HH
-3.2778256	N UW HH
-3.63453	K UW HH
-5.152405	Y UW HH
-2.6444292	W UW HH
-3.6989079	ER W HH
-4.3598084	K W HH
-2.8437548	AE NG HH
-3.0908267	IH NG HH
-2.7666855	AO NG HH
-3.6036096	AH NG HH
-3.3545089	EH NG HH
-3.2958035	AE G HH
-1.23702	L G HH
-3.9272196	IH G HH
-3.6285925	R G HH
-3.9335942	AH G HH
-2.652325	EH G HH
-2.2454522	OW G HH
-3.0834296	AA G HH
-2.8851733	AY G HH
-2.633376	UW G HH
-2.1163135	IH TH HH
-1.8164234	AW TH HH
-4.3351784	IY CH HH
-3.6056855	OW CH HH
-3.1082757	AA CH HH
-4.741648	IH SH HH
-3.3467882	EH SH HH
-3.6447577	AE JH HH
-4.2320347	IH JH HH
-2.196797	EH JH HH
-1.8993723	B OY HH
-0.94306064	<s> HH AE
-1.9305699	D HH AE
-0.62601227	SIL HH AE
-1.1890714	L HH AE
-0.75519866	EY HH AE
-1.4357085	IH HH AE
-0.686405	F HH AE
-0.79802775	R HH AE
-0.109052815	ER HH AE
-0.70981425	AH HH AE
-1.0589155	P HH AE
-1.9633372	EH HH AE
-1.3379688	T HH AE
-0.29800585	N HH AE
-0.40914124	Z HH AE
-1.8972955	K HH AE
-1.3572845	S HH AE
-2.6830199	IY HH AE
-0.8560966	OW HH AE
-1.5180755	UW HH AE
-0.14689828	NG HH AE
-1.8355098	G HH AE
-0.6611445	TH HH AE
-1.6951014	JH HH AE
-1.6158259	<s> D AE
-4.651938	AE D AE
-2.0348356	D D AE
-1.7477362	SIL D AE
-3.9351752	L D AE
-3.1719027	EY D AE
-2.4226956	B D AE
-3.6365442	IH D AE
-3.7572813	R D AE
-2.8564956	ER D AE
-2.5670092	AH D AE
-4.1916947	N D AE
-1.2094167	S D AE
-3.9243045	M D AE
-3.140299	OW D AE
-2.4404647	AA D AE
-3.682013	AY D AE
-3.3890984	UW D AE
-1.5212202	G D AE
-1.7691367	HH SIL AE
-1.5617557	D SIL AE
-1.5648409	SIL SIL AE
-1.5586035	L SIL AE
-1.6467135	EY SIL AE
-1.6130565	B SIL AE
-1.6566769	IH SIL AE
-1.4900819	F SIL AE
-1.6556585	AO SIL AE
-1.6174937	R SIL AE
-1.6176361	ER SIL AE
-2.012579	AH SIL AE
-1.5297368	P SIL AE
-1.6494192	EH SIL AE
-1.7591985	V SIL AE
-1.5620736	T SIL AE
-1.5647995	N SIL AE
-1.6055291	Z SIL AE
-1.652487	AW SIL AE
-1.4287901	K SIL AE
-1.5719255	S SIL AE
-1.5387908	M SIL AE
-1.5599049	IY SIL AE
-1.6584612	OW SIL AE
-1.997865	AA SIL AE
-1.562065	DH SIL AE
-1.3108099	AY SIL AE
-1.8243169	UW SIL AE
-1.4672525	NG SIL AE
-1.5220537	G SIL AE
-1.5903214	TH SIL AE
-1.3490635	CH SIL AE
-1.6272944	SH SIL AE
-1.5894483	JH SIL AE
-1.3007606	ZH SIL AE
-1.4976072	OY SIL AE
-1.3387772	<s> L AE
-2.1394663	D L AE
-1.019979	SIL L AE
-3.3495252	EY L AE
-0.7890471	B L AE
-2.3244507	IH L AE
-0.89445853	F L AE
-2.1859527	R L AE
-1.9187678	ER L AE
-2.2963424	AH L AE
-1.1063329	P L AE
-3.9524837	EH L AE
-1.9831322	V L AE
-2.0792172	T L AE
-2.1856663	N L AE
-2.195342	Z L AE
-1.1029377	K L AE
-1.5870705	S L AE
-2.1143544	M L AE
-2.2862918	IY L AE
-3.0307062	OW L AE
-2.4667456	AY L AE
-3.4954946	UW L AE
-3.6225247	NG L AE
-0.49218893	G L AE
-2.0868716	TH L AE
-2.3005054	CH L AE
-2.1146479	SH L AE
-2.085613	<s> B AE
-0.9902517	D B AE
-1.2575692	SIL B AE
-2.0889068	L B AE
-2.473988	IH B AE
-0.7577511	F B AE
-0.8891789	AO B AE
-1.8435212	R B AE
-1.8185089	ER B AE
-1.8553973	AH B AE
-1.2498562	P B AE
-1.1242151	T B AE
-1.5595706	N B AE
-3.3679957	Z B AE
-1.4965148	K B AE
-0.731083	S B AE
-1.6014838	M B AE
-2.6469638	IY B AE
-2.8170862	OW B AE
-2.6878197	AY B AE
-2.786452	UW B AE
-0.558723	CH B AE
-1.8825066	<s> F AE
-1.3251754	D F AE
-1.3939372	SIL F AE
-3.2573354	L F AE
-2.879274	IH F AE
-1.9364367	R F AE
-3.1203003	ER F AE
-2.00084	AH F AE
-1.771417	N F AE
-0.8281336	S F AE
-1.4530307	M F AE
-3.1186917	IY F AE
-1.8807497	OW F AE
-3.1842608	UW F AE
-2.8785677	TH F AE
-1.040022	<s> R AE
-1.31869	D R AE
-1.1865865	SIL R AE
-1.2907547	B R AE
-2.3858109	IH R AE
-1.3287923	F R AE
-3.5515568	AO R AE
-0.94008017	ER R AE
-1.4092708	AH R AE
-1.5863339	P R AE
-2.7032049	EH R AE
-1.0405359	T R AE
-1.5058966	N R AE
-1.1694806	K R AE
-2.1689224	S R AE
-3.5277314	UH R AE
-0.24711385	M R AE
-3.0950778	IY R AE
-4.744636	AA R AE
-2.2841113	AY R AE
-0.8418794	G R AE
-2.315302	TH R AE
-1.1788864	SH R AE
-2.1633847	OY R AE
-2.390355	<s> ER AE
-2.8653388	HH ER AE
-4.232418	D ER AE
-2.8172073	SIL ER AE
-3.1907554	L ER AE
-2.841564	B ER AE
-2.2729063	P ER AE
-2.9470363	V ER AE
-2.9331548	T ER AE
-2.2708693	N ER AE
-3.4325056	Z ER AE
-2.452018	K ER AE
-3.8681784	S ER AE
-3.8501775	Y ER AE
-1.6095693	M ER AE
-3.844355	G ER AE
-3.091526	TH ER AE
-4.071286	CH ER AE
-3.213844	JH ER AE
-1.9444271	ZH ER AE
-1.3178579	<s> P AE
-1.6063799	D P AE
-1.1479008	SIL P AE
-2.7492387	L P AE
-3.7123234	EY P AE
-3.1476696	IH P AE
-2.7004042	R P AE
-1.6732596	ER P AE
-2.1038823	AH P AE
-1.0245615	T P AE
-1.435268	N P AE
-2.1614707	Z P AE
-1.3264033	K P AE
-1.6375076	S P AE
-0.29663163	Y P AE
-1.3569071	M P AE
-2.4363854	IY P AE
-2.149422	OW P AE
-3.1332526	AY P AE
-2.9551432	UW P AE
-1.0208702	G P AE
-1.9241382	TH P AE
-0.29663163	CH P AE
-1.0087547	<s> V AE
-0.3400727	D V AE
-1.0171628	SIL V AE
-3.2716618	L V AE
-2.1826932	EY V AE
-2.411491	IH V AE
-3.1345394	R V AE
-2.9001646	ER V AE
-3.1455529	AH V AE
-2.3055239	N V AE
-1.6157818	K V AE
-3.5341582	IY V AE
-2.8065774	OW V AE
-3.3475559	AY V AE
-2.9830894	UW V AE
-1.9356679	<s> T AE
-4.7380395	AE T AE
-1.1611944	D T AE
-2.0822327	SIL T AE
-2.575681	IH T AE
-2.7547216	R T AE
-3.3781898	ER T AE
-1.9467711	AH T AE
-4.32814	P T AE
-4.535669	EH T AE
-2.439451	N T AE
-1.4205573	Z T AE
-3.062196	K T AE
-1.451371	S T AE
-3.2273855	IY T AE
-3.3152716	OW T AE
-3.6602714	AA T AE
-2.9055665	AY T AE
-2.629372	UW T AE
-2.7541554	NG T AE
-1.5333825	G T AE
-4.0459447	SH T AE
-1.8423504	<s> N AE
-4.817575	AE N AE
-1.8833007	D N AE
-1.7600582	SIL N AE
-2.4575114	L N AE
-2.8899252	IH N AE
-2.6547782	R N AE
-2.1241326	ER N AE
-2.8797443	AH N AE
-3.364595	EH N AE
-3.627363	V N AE
-2.618545	T N AE
-0.989855	N N AE
-2.9777126	K N AE
-0.8817986	S N AE
-1.8477314	M N AE
-3.6492195	IY N AE
-3.5470576	OW N AE
-4.7527018	AA N AE
-2.8203144	AY N AE
-2.3253677	UW N AE
-2.0376515	G N AE
-2.6306386	SH N AE
-1.3900245	SIL Z AE
-3.0567038	IH Z AE
-2.4063761	R Z AE
-3.7528195	AH Z AE
-2.7028093	N Z AE
-4.72931	IY Z AE
-3.653755	OW Z AE
-3.823686	AY Z AE
-2.5696936	UW Z AE
-0.5070857	G Z AE
-0.84051895	<s> K AE
-3.5942852	AE K AE
-0.75222373	D K AE
-0.92405325	SIL K AE
-1.6617751	L K AE
-3.9204254	EY K AE
-1.1493872	B K AE
-2.857399	IH K AE
-1.5806241	F K AE
-3.8940957	AO K AE
-1.9652306	R K AE
-2.2831912	ER K AE
-2.0575526	AH K AE
-2.480076	P K AE
-1.0756778	T K AE
-1.6384001	N K AE
-1.5493561	S K AE
-1.1494484	M K AE
-2.2704184	IY K AE
-1.9390116	OW K AE
-3.278046	AY K AE
-1.6510812	UW K AE
-3.9845898	NG K AE
-1.7420326	<s> S AE
-4.170601	AE S AE
-1.6003393	SIL S AE
-3.5273697	L S AE
-3.719813	EY S AE
-2.3921385	B S AE
-2.988276	IH S AE
-3.366122	AO S AE
-2.7894518	R S AE
-3.461279	ER S AE
-2.858393	AH S AE
-2.5905616	P S AE
-4.6310816	EH S AE
-3.703941	T S AE
-3.0159829	N S AE
-2.992979	K S AE
-3.9571903	IY S AE
-3.2702765	OW S AE
-2.2745426	AA S AE
-2.954397	AY S AE
-2.4899116	UW S AE
-3.0409307	<s> Y AE
-2.824253	SIL Y AE
-3.5730252	V Y AE
-3.3938372	N Y AE
-3.1440554	S Y AE
-3.8465772	M Y AE
-1.9073725	OW Y AE
-0.40591055	SH Y AE
-1.2343416	<s> M AE
-4.0595794	AE M AE
-1.7610302	D M AE
-0.9565421	SIL M AE
-2.2990263	L M AE
-2.8649762	B M AE
-1.4866334	IH M AE
-2.130727	F M AE
-2.0368977	AO M AE
-2.4323187	R M AE
-1.7491373	ER M AE
-1.8111165	AH M AE
-1.7118437	P M AE
-4.4165726	EH M AE
-3.10652	V M AE
-2.1165879	T M AE
-1.3489145	N M AE
-1.2164989	Z M AE
-1.6787713	K M AE
-1.740305	S M AE
-3.0817082	IY M AE
-1.488425	OW M AE
-3.2475786	AA M AE
-2.7298288	AY M AE
-1.7746127	UW M AE
-1.9060508	NG M AE
-1.1709456	G M AE
-0.88249826	CH M AE
-2.7707846	D IY AE
-3.301289	L IY AE
-4.099887	B IY AE
-2.915687	F IY AE
-2.2918606	R IY AE
-3.3995268	ER IY AE
-1.8930485	P IY AE
-2.720428	V IY AE
-3.691959	T IY AE
-2.9318845	N IY AE
-1.0198991	Z IY AE
-3.8401346	K IY AE
-3.0661888	S IY AE
-3.647893	M IY AE
-4.284469	W IY AE
-2.934104	G IY AE
-1.7355899	TH IY AE
-1.4976724	CH IY AE
-2.9712832	SH IY AE
-2.4836996	JH IY AE
-0.39291787	ZH IY AE
-3.8558455	B OW AE
-4.3009467	R OW AE
-2.9568193	K OW AE
-3.8511095	M OW AE
-2.9296148	IY OW AE
-1.70745	JH OW AE
-0.7877175	<s> DH AE
-0.84385145	SIL DH AE
-1.2344408	D AY AE
-4.6942267	L AY AE
-4.151056	F AY AE
-2.6618075	R AY AE
-3.8117535	V AY AE
-4.2209353	T AY AE
-2.7498157	N AY AE
-3.118042	K AY AE
-3.4790215	S AY AE
-4.2254186	M AY AE
-3.1958973	G AY AE
-3.6850405	CH AY AE
-2.6325448	SH AY AE
-4.022809	D UW AE
-2.4180984	CH UW AE
-3.5689306	SH UW AE
-1.9062839	JH UW AE
-3.664951	<s> W AE
-1.0827547	HH W AE
-2.8750765	SIL W AE
-1.9321576	F W AE
-2.5253956	AH W AE
-1.4861091	V W AE
-3.3380556	N W AE
-2.615741	K W AE
-1.7035471	S W AE
-3.3026903	IY W AE
-2.2912831	G W AE
-2.6865978	TH W AE
-2.0056336	SH W AE
-1.3236139	<s> G AE
-3.6558146	AE G AE
-1.5306295	SIL G AE
-2.7868161	L G AE
-2.9723186	EY G AE
-0.7841382	IH G AE
-0.6208904	F G AE
-1.8721987	R G AE
-2.2588015	ER G AE
-2.4000344	AH G AE
-1.6167996	P G AE
-2.7221391	N G AE
-1.5079232	K G AE
-2.3084445	IY G AE
-2.2894504	OW G AE
-3.199809	AA G AE
-0.64091945	AY G AE
-1.5836787	UW G AE
-3.9351368	NG G AE
-0.88742816	<s> TH AE
-1.5291903	SIL TH AE
-3.7366595	IH TH AE
-3.2444282	R TH AE
-2.3608508	AH TH AE
-3.4669697	N TH AE
-4.042334	IY TH AE
-3.695339	UW TH AE
-0.13057043	<s> CH AE
-3.7915761	AE CH AE
-0.9073511	SIL CH AE
-3.7270796	R CH AE
-1.9011726	ER CH AE
-4.3563194	AH CH AE
-1.5283136	T CH AE
-1.4662372	N CH AE
-2.3987136	S CH AE
-3.4175954	OW CH AE
-3.2531626	AA CH AE
-1.5861115	<s> SH AE
-3.0266745	D SH AE
-1.0348815	SIL SH AE
-2.1998158	R SH AE
-1.6437328	ER SH AE
-3.5987165	AH SH AE
-3.0285566	N SH AE
-3.313271	K SH AE
-0.88943493	M SH AE
-3.0458813	OW SH AE
-3.573983	UW SH AE
-1.1891582	<s> JH AE
-1.3499426	SIL JH AE
-2.7131126	EY JH AE
-2.1916552	IH JH AE
-3.2303479	ER JH AE
-3.337689	AH JH AE
-1.2198273	P JH AE
-1.4284647	T JH AE
-1.9418057	IY JH AE
-1.7527239	AA ZH AE
-2.5052304	R OY AE
-3.4709418	N OY AE
-1.7458847	<s> AE D
-0.38314408	HH AE D
-1.2979361	D AE D
-1.4088604	SIL AE D
-1.0844363	L AE D
-1.0481907	B AE D
-2.8041255	F AE D
-1.7344471	R AE D
-1.9451622	ER AE D
-1.8828585	P AE D
-3.7511718	V AE D
-1.6972315	T AE D
-1.9361035	N AE D
-3.3643034	Z AE D
-2.366187	K AE D
-0.92030567	S AE D
-1.2805997	M AE D
-2.0653515	IY AE D
-2.759527	AY AE D
-1.7170705	W AE D
-2.3695834	G AE D
-2.1901367	TH AE D
-3.6463754	CH AE D
-0.8831053	SH AE D
-2.9825013	IH D D
-5.043523	EH D D
-5.098433	UH D D
-4.3822594	AA D D
-1.7730759	HH SIL D
-1.6174859	D SIL D
-2.171857	SIL SIL D
-1.5323285	L SIL D
-1.4640243	EY SIL D
-1.6223418	B SIL D
-1.8119501	IH SIL D
-1.8020169	F SIL D
-1.9568931	AO SIL D
-1.6060821	R SIL D
-1.5606112	ER SIL D
-1.3030857	AH SIL D
-1.864115	P SIL D
-1.4429963	EH SIL D
-1.6358194	V SIL D
-1.6103803	T SIL D
-1.6929557	N SIL D
-1.6310757	Z SIL D
-1.3544449	AW SIL D
-1.7962981	K SIL D
-1.672945	S SIL D
-1.645382	M SIL D
-1.4109566	IY SIL D
-1.460136	OW SIL D
-1.60772	AA SIL D
-1.7807246	DH SIL D
-1.1814685	AY SIL D
-1.3720797	UW SIL D
-1.6904562	NG SIL D
-1.6345304	G SIL D
-1.7037363	TH SIL D
-1.6734468	CH SIL D
-1.7467941	SH SIL D
-1.7343658	JH SIL D
-1.6539185	OY SIL D
-2.2777932	AE L D
-0.98515576	EY L D
-1.0926461	IH L D
-4.300036	F L D
-1.2033043	AO L D
-2.8927422	R L D
-0.5647372	ER L D
-1.4301306	AH L D
-4.647678	P L D
-1.3159914	EH L D
-4.2301755	T L D
-0.72203755	AW L D
-4.50821	K L D
-4.125051	S L D
-1.062126	UH L D
-0.75705254	IY L D
-0.22046944	OW L D
-1.9617746	AA L D
-0.6502236	AY L D
-1.5584972	UW L D
-0.6840255	OY L D
-1.2811219	<s> EY D
-2.0749874	HH EY D
-2.958444	D EY D
-1.3335075	SIL EY D
-0.7695357	L EY D
-0.8675101	B EY D
-1.6079707	F EY D
-1.1472932	R EY D
-1.7279721	ER EY D
-1.1874983	P EY D
-1.1055725	V EY D
-1.999481	T EY D
-1.858444	N EY D
-1.0799484	Z EY D
-1.8122814	K EY D
-2.1979375	S EY D
-0.541663	M EY D
-3.1783214	IY EY D
-2.4633238	DH EY D
-2.360477	UW EY D
-1.6428628	W EY D
-2.2326834	G EY D
-3.6854637	CH EY D
-0.8181505	SH EY D
-1.9262848	JH EY D
-1.7046847	AE B D
-2.6021984	IH B D
-1.4834484	AO B D
-1.0796037	R B D
-0.9160961	ER B D
-2.1549125	AH B D
-2.0779004	EH B D
-2.6973293	N B D
-3.1265242	M B D
-2.2734563	OW B D
-1.383526	AA B D
-0.6728943	AY B D
-3.9102604	<s> IH D
-2.1017709	HH IH D
-0.7595872	D IH D
-3.1969025	SIL IH D
-2.0427904	L IH D
-2.9918985	EY IH D
-1.947797	B IH D
-2.071355	F IH D
-1.7953005	R IH D
-2.5540533	ER IH D
-1.9851689	P IH D
-1.7186365	V IH D
-0.79991496	T IH D
-1.6955674	N IH D
-1.711555	Z IH D
-2.0992732	K IH D
-1.2433937	S IH D
-3.7708545	Y IH D
-1.2916232	M IH D
-3.4198945	IY IH D
-3.7816994	OW IH D
-2.2174969	UW IH D
-2.50624	W IH D
-3.1956427	NG IH D
-1.9493183	G IH D
-4.243863	TH IH D
-1.4503437	CH IH D
-3.5601306	SH IH D
-2.0943375	JH IH D
-3.6837533	L F D
-3.9597173	R F D
-3.3484726	ER F D
-3.4302201	UW F D
-3.4685142	<s> AO D
-2.738262	HH AO D
-2.8413653	D AO D
-3.0536017	SIL AO D
-2.2399592	L AO D
-2.9397032	B AO D
-4.9290934	F AO D
-1.1303601	R AO D
-0.57735425	ER AO D
-3.2427764	P AO D
-2.4359689	V AO D
-3.2637339	T AO D
-2.1336725	N AO D
-2.869696	K AO D
-2.3095915	S AO D
-2.385841	M AO D
-3.0482829	W AO D
-1.9779133	G AO D
-3.0194123	TH AO D
-1.909031	CH AO D
-3.636742	SH AO D
-2.5140753	JH AO D
-3.968079	AE R D
-2.1874998	L R D
-4.3017144	B R D
-1.094982	IH R D
-1.1173396	AO R D
-1.3696003	ER R D
-1.6134536	EH R D
-1.5179111	N R D
-2.0751963	AW R D
-1.2485255	UH R D
-2.4538593	M R D
-2.2733297	IY R D
-0.9558246	AA R D
-1.025548	AY R D
-2.941583	UW R D
-1.1259825	HH ER D
-1.0275826	D ER D
-3.601202	SIL ER D
-1.4174984	L ER D
-1.436335	EY ER D
-0.80281776	B ER D
-1.0762179	F ER D
-1.9068964	R ER D
-1.8170135	ER ER D
-1.4711726	P ER D
-1.3041418	V ER D
-1.2848369	T ER D
-1.8695005	N ER D
-1.3519338	Z ER D
-1.5832618	AW ER D
-0.9620768	K ER D
-1.0657403	S ER D
-1.1798476	Y ER D
-0.9227313	M ER D
-1.0366455	OW ER D
-1.7783632	DH ER D
-0.6203623	AY ER D
-0.5016099	UW ER D
-0.69882727	W ER D
-1.4202843	G ER D
-0.35610437	TH ER D
-1.1277739	CH ER D
-1.489636	SH ER D
-1.6224197	JH ER D
-1.3942765	ZH ER D
-2.9079423	<s> AH D
-1.9948999	HH AH D
-0.69830465	D AH D
-2.2495048	SIL AH D
-1.3426017	L AH D
-2.177579	EY AH D
-2.091064	B AH D
-1.5112386	F AH D
-1.2308768	R AH D
-2.8057523	ER AH D
-1.4306519	P AH D
-1.148284	V AH D
-0.6041968	T AH D
-2.2356722	N AH D
-1.775561	Z AH D
-0.78498423	AW AH D
-1.9811869	K AH D
-1.4514606	S AH D
-3.419806	Y AH D
-1.8832598	M AH D
-1.5529526	IY AH D
-2.4601085	AY AH D
-1.9667681	UW AH D
-2.432816	W AH D
-1.4845928	G AH D
-0.67717266	TH AH D
-3.524264	CH AH D
-2.4444296	SH AH D
-1.69861	JH AH D
-3.5226848	AE P D
-3.9196892	IH P D
-4.6557026	AH P D
-3.2439933	EH P D
-3.10783	M P D
-4.2714643	AA P D
-1.9703903	UW P D
-1.3314222	<s> EH D
-0.5155019	HH EH D
-0.8525156	D EH D
-1.7918019	SIL EH D
-1.2629379	L EH D
-0.41500023	EY EH D
-0.9105801	B EH D
-1.5771767	F EH D
-0.69707423	R EH D
-1.8635017	ER EH D
-1.9714961	P EH D
-3.2947254	V EH D
-1.3088733	T EH D
-1.9379017	N EH D
-3.3546028	Z EH D
-3.1539776	K EH D
-0.50829387	S EH D
-2.7103298	Y EH D
-1.4815692	M EH D
-2.2274275	W EH D
-2.7866058	G EH D
-2.7807734	TH EH D
-2.045443	CH EH D
-0.95085955	SH EH D
-2.3828688	JH EH D
-4.3823442	AE V D
-1.0293858	L V D
-1.140097	EY V D
-3.0157187	IH V D
-0.7745055	R V D
-0.7413407	ER V D
-2.2142212	AH V D
-4.220565	EH V D
-0.88236284	IY V D
-3.4812124	OW V D
-2.1311555	AA V D
-0.70650786	AY V D
-0.5210631	UW V D
-4.4611497	L T D
-3.3717828	R T D
-3.8206167	EH T D
-5.193678	N T D
-2.9879904	AW T D
-3.8695564	S T D
-4.644888	AY T D
-0.3017572	HH N D
-0.6855645	AE N D
-2.9656217	D N D
-2.9206448	L N D
-0.90223366	EY N D
-1.290743	IH N D
-1.368892	AO N D
-1.3732466	R N D
-0.62470484	ER N D
-0.38272917	AH N D
-0.8781149	EH N D
-3.191739	T N D
-0.34444833	AW N D
-2.9802377	K N D
-1.1485736	UH N D
-1.7159401	IY N D
-1.923642	OW N D
-1.2090591	AA N D
-0.25766316	AY N D
-1.3264288	UW N D
-2.716415	G N D
-0.92479914	OY N D
-4.8214493	AE Z D
-4.100415	D Z D
-3.6294131	L Z D
-0.9607795	EY Z D
-2.6642253	IH Z D
-1.1513977	AO Z D
-3.510848	R Z D
-2.6834373	ER Z D
-3.2550368	AH Z D
-2.8981125	EH Z D
-2.7020202	V Z D
-2.5385478	N Z D
-0.99864656	AW Z D
-3.5581946	M Z D
-1.4614208	IY Z D
-0.92037725	OW Z D
-2.1559849	AA Z D
-0.8246498	AY Z D
-0.7265382	UW Z D
-3.855776	G Z D
-1.814203	OY Z D
-3.1773672	HH AW D
-2.0139623	D AW D
-4.462096	SIL AW D
-0.33658317	L AW D
-1.6056519	B AW D
-3.6728666	F AW D
-0.7913041	R AW D
-1.1303041	P AW D
-1.0577639	V AW D
-3.2079065	T AW D
-4.0205255	N AW D
-2.624839	K AW D
-2.1823776	S AW D
-3.4709458	M AW D
-2.0805194	G AW D
-1.3606571	CH AW D
-3.3674505	AE K D
-3.511283	EY K D
-4.0537143	AO K D
-2.515418	R K D
-4.095482	ER K D
-2.8072455	AH K D
-4.7414055	EH K D
-3.0180364	OW K D
-3.4119956	AA K D
-2.1895144	UW K D
-4.517593	NG K D
-3.3413804	AE S D
-3.0919752	EY S D
-2.7251372	IH S D
-3.3983529	AO S D
-2.6503842	R S D
-4.549903	ER S D
-3.6614113	AH S D
-3.2868948	EH S D
-4.627974	T S D
-4.0141816	N S D
-4.576354	K S D
-3.8652787	M S D
-3.771467	AA S D
-3.5615659	UW S D
-0.119783424	HH UH D
-4.333436	L UH D
-3.5776663	B UH D
-1.9100642	P UH D
-0.37580866	T UH D
-0.023992976	K UH D
-0.07863815	W UH D
-0.0020147634	G UH D
-0.19843666	SH UH D
-1.9646922	AE M D
-1.8180012	L M D
-1.0392216	EY M D
-2.7712553	IH M D
-2.166349	AO M D
-0.9373956	R M D
-1.5650525	ER M D
-2.275126	AH M D
-2.2526085	EH M D
-0.52130544	IY M D
-2.1702936	OW M D
-2.5529928	AA M D
-1.8882357	DH M D
-1.8212391	AY M D
-1.2577294	UW M D
-2.2343771	<s> IY D
-2.2696764	HH IY D
-1.0528777	D IY D
-2.0414603	SIL IY D
-1.9100413	L IY D
-2.0838242	B IY D
-1.5815834	F IY D
-1.30013	R IY D
-1.4095144	ER IY D
-1.418171	P IY D
-1.8095852	V IY D
-2.2155397	T IY D
-1.1481472	N IY D
-1.8942302	Z IY D
-2.860727	K IY D
-1.2043692	S IY D
-1.3999666	M IY D
-4.2040763	DH IY D
-1.6572506	AY IY D
-1.909078	UW IY D
-1.8919606	W IY D
-2.8752582	G IY D
-1.4379408	TH IY D
-2.532262	CH IY D
-2.5461779	SH IY D
-2.4283774	JH IY D
-2.3981588	<s> OW D
-3.2109463	HH OW D
-2.015465	D OW D
-2.035557	SIL OW D
-1.0260508	L OW D
-1.562114	B OW D
-3.1294584	F OW D
-1.0089318	R OW D
-1.3820692	ER OW D
-3.0849068	P OW D
-1.545539	T OW D
-2.6078577	N OW D
-1.1019814	Z OW D
-1.5360293	K OW D
-2.352006	S OW D
-1.0327932	Y OW D
-1.7325437	M OW D
-2.0826886	IY OW D
-0.68324625	AY OW D
-3.0207794	W OW D
-2.6264105	G OW D
-2.6935089	TH OW D
-0.7923704	SH OW D
-2.9663482	JH OW D
-2.372948	<s> AA D
-3.1597033	HH AA D
-2.497901	D AA D
-1.9773386	SIL AA D
-2.0382674	L AA D
-0.44131774	B AA D
-2.405367	F AA D
-1.4132953	R AA D
-1.0524818	ER AA D
-2.6334746	P AA D
-1.4059039	V AA D
-2.1985428	T AA D
-1.96541	N AA D
-1.6123886	Z AA D
-2.3728848	K AA D
-1.8307891	S AA D
-2.787124	Y AA D
-1.0519028	M AA D
-1.439264	IY AA D
-1.9287505	AY AA D
-1.134831	UW AA D
-2.6604245	W AA D
-0.578235	G AA D
-0.96473575	TH AA D
-1.851742	SH AA D
-3.1072762	AE DH D
-0.41993234	EY DH D
-2.7848449	IH DH D
-3.6688373	AH DH D
-2.49051	EH DH D
-1.5187825	AW DH D
-1.3598882	IY DH D
-1.0056918	OW DH D
-2.7345	AA DH D
-0.8921415	UW DH D
-2.063066	<s> AY D
-1.0468994	HH AY D
-0.7391699	D AY D
-1.4041524	SIL AY D
-1.1320295	L AY D
-2.3043864	B AY D
-0.97705394	F AY D
-0.7192536	R AY D
-2.2570813	ER AY D
-0.9698646	P AY D
-0.75597304	V AY D
-1.4571595	T AY D
-1.8533437	N AY D
-1.2495527	Z AY D
-3.5918672	K AY D
-0.3412625	S AY D
-3.2212472	M AY D
-3.5638247	DH AY D
-1.470526	W AY D
-0.3211594	G AY D
-2.1884735	CH AY D
-2.2661684	SH AY D
-0.56889814	<s> UW D
-2.92004	HH UW D
-2.222794	D UW D
-0.61674184	SIL UW D
-1.0029527	L UW D
-0.032083094	EY UW D
-1.0343337	B UW D
-0.33101937	F UW D
-1.3931615	R UW D
-1.7301146	P UW D
-1.3918805	V UW D
-2.0740921	T UW D
-1.8458942	N UW D
-2.2724738	Z UW D
-1.8133607	K UW D
-1.387661	S UW D
-1.6094589	Y UW D
-1.2238643	M UW D
-2.1144812	IY UW D
-0.29319572	UW UW D
-1.9212219	W UW D
-2.5927198	G UW D
-2.214326	CH UW D
-0.96478355	SH UW D
-1.0014015	JH UW D
-3.1419103	IY W D
-1.9717411	AE NG D
-2.4968097	IH NG D
-1.4406012	AO NG D
-3.0671024	AH NG D
-1.1426044	AE G D
-2.0857618	EY G D
-2.7089572	IH G D
-1.8153993	AO G D
-3.64317	ER G D
-2.1991305	AH G D
-1.1778276	EH G D
-1.7920856	IY G D
-1.6742408	AA G D
-2.8851733	AY G D
-1.5804423	IH TH D
-1.6837602	ER TH D
-3.8460693	EH TH D
-4.0829735	IY TH D
-2.8489406	AA TH D
-3.48471	UW TH D
-3.999778	AE CH D
-2.8124576	R CH D
-4.2959447	AH CH D
-2.4099014	AA CH D
-3.102923	AE SH D
-4.3156524	IH SH D
-3.600034	R SH D
-2.91587	AA SH D
-1.3529451	L JH D
-0.811877	EY JH D
-1.4246349	IH JH D
-1.2456656	R JH D
-0.7930038	ER JH D
-1.2659923	AH JH D
-1.3492382	EH JH D
-0.9416877	N JH D
-0.5186058	AW JH D
-1.3944463	IY JH D
-1.1608794	AA JH D
-0.13701403	AY JH D
-2.939233	UW JH D
-1.4147702	AA ZH D
-3.7753038	UW ZH D
-1.7489767	HH OY D
-0.48979923	L OY D
-2.3943415	B OY D
-1.0621417	F OY D
-0.6007569	R OY D
-0.4178166	ER OY D
-3.4221714	P OY D
-0.7840219	V OY D
-1.856944	T OY D
-1.0773796	N OY D
-1.9356787	K OY D
-1.4578886	M OY D
-0.81972724	W OY D
-1.1570685	JH OY D
-2.1194282	IH HH SIL
-3.768577	ER HH SIL
-2.6115844	AH HH SIL
-2.136699	IY HH SIL
-1.9929222	AA HH SIL
-1.7970406	AY HH SIL
-1.4240923	UW HH SIL
-3.6903768	P AE SIL
-4.130503	V AE SIL
-1.6158751	Y AE SIL
-3.6744602	CH AE SIL
-0.08337854	AE D SIL
-1.9758773	D D SIL
-0.097710624	L D SIL
-0.15598394	EY D SIL
-0.065790236	B D SIL
-0.14430375	IH D SIL
-1.0343595	F D SIL
-0.2061518	AO D SIL
-0.26331586	R D SIL
-0.10256955	ER D SIL
-0.15540826	AH D SIL
-1.8986883	P D SIL
-0.110638365	EH D SIL
-0.0022899979	V D SIL
-0.09075208	N D SIL
-0.024215713	Z D SIL
-0.1723007	AW D SIL
-1.2545277	K D SIL
-1.3155348	S D SIL
-0.030562101	UH D SIL
-0.002722869	M D SIL
-0.25271556	IY D SIL
-0.10861926	OW D SIL
-0.5188166	AA D SIL
-0.06950062	DH D SIL
-0.15205742	AY D SIL
-0.17934969	UW D SIL
-0.26447174	W D SIL
-0.23880893	NG D SIL
-0.05423041	G D SIL
-2.1902425	TH D SIL
-0.5648122	CH D SIL
-0.49224934	SH D SIL
-0.00042655133	JH D SIL
-0.27383435	ZH D SIL
-0.108735785	OY D SIL
-5.058679	D SIL SIL
-4.7276306	L SIL SIL
-4.7394066	EY SIL SIL
-4.8065557	F SIL SIL
-3.8834898	AO SIL SIL
-4.7335324	R SIL SIL
-5.076072	ER SIL SIL
-5.1588616	AH SIL SIL
-4.6499987	P SIL SIL
-5.4065666	V SIL SIL
-4.942679	T SIL SIL
-4.189209	N SIL SIL
-4.453279	Z SIL SIL
-4.237073	AW SIL SIL
-4.645631	K SIL SIL
-4.4222403	S SIL SIL
-4.766656	M SIL SIL
-5.094843	IY SIL SIL
-3.8402965	OW SIL SIL
-2.992557	AA SIL SIL
-5.038516	NG SIL SIL
-4.449246	TH SIL SIL
-4.780628	CH SIL SIL
-4.353324	JH SIL SIL
-0.51009905	AE L SIL
-0.32243282	EY L SIL
-3.455962	B L SIL
-0.3578543	IH L SIL
-0.21841066	AO L SIL
-2.0028281	R L SIL
-0.7020135	ER L SIL
-0.2545255	AH L SIL
-0.54449964	EH L SIL
-3.3997595	V L SIL
-0.2929779	AW L SIL
-3.8811357	S L SIL
-0.2805773	UH L SIL
-0.36775133	IY L SIL
-0.7200061	OW L SIL
-1.8837589	AA L SIL
-0.33579957	AY L SIL
-0.3736068	UW L SIL
-3.0585287	NG L SIL
-4.1766706	G L SIL
-0.28948525	OY L SIL
-0.8639076	<s> EY SIL
-1.1997433	HH EY SIL
-0.2757032	D EY SIL
-1.9396006	SIL EY SIL
-0.9390817	L EY SIL
-0.8546431	B EY SIL
-2.3127592	F EY SIL
-1.1925335	R EY SIL
-1.6912637	ER EY SIL
-1.0871693	P EY SIL
-1.314636	V EY SIL
-1.4513884	T EY SIL
-1.4660952	N EY SIL
-1.5556034	Z EY SIL
-1.9541405	K EY SIL
-0.517975	S EY SIL
-0.27821207	Y EY SIL
-0.6676	M EY SIL
-2.471228	IY EY SIL
-0.005985223	DH EY SIL
-2.8548594	UW EY SIL
-0.3019726	W EY SIL
-0.5173402	NG EY SIL
-1.5185555	G EY SIL
-0.7137821	TH EY SIL
-3.120846	CH EY SIL
-2.254965	SH EY SIL
-1.0419245	JH EY SIL
-0.0644486	ZH EY SIL
-1.1642201	AE B SIL
-1.7355803	L B SIL
-1.9671965	EY B SIL
-1.5014513	IH B SIL
-1.2412997	AO B SIL
-1.2506253	R B SIL
-0.89406973	ER B SIL
-1.7532098	AH B SIL
-0.91812694	EH B SIL
-2.8018239	N B SIL
-1.5115184	AW B SIL
-0.30085385	UH B SIL
-2.9662974	M B SIL
-1.4799398	IY B SIL
-1.1096896	OW B SIL
-0.8590277	AA B SIL
-0.67776847	AY B SIL
-0.9581419	UW B SIL
-3.4859586	L IH SIL
-4.685606	N IH SIL
-4.0527744	Z IH SIL
-4.0965643	K IH SIL
-3.7140715	Y IH SIL
-4.149308	IY IH SIL
-3.2516878	W IH SIL
-4.0476894	G IH SIL
-4.7178316	TH IH SIL
-4.0313506	SH IH SIL
-3.7053819	JH IH SIL
-0.6189485	AE F SIL
-0.045293845	L F SIL
-0.36710525	EY F SIL
-0.35189483	IH F SIL
-0.37516454	AO F SIL
-1.2564601	R F SIL
-1.4960159	ER F SIL
-0.7144677	AH F SIL
-1.4180019	P F SIL
-1.3953291	EH F SIL
-3.4988983	T F SIL
-0.826996	AW F SIL
-2.6735344	S F SIL
-0.9617273	M F SIL
-0.14238837	IY F SIL
-1.0757095	OW F SIL
-1.4809375	AA F SIL
-0.05361295	AY F SIL
-0.1471583	UW F SIL
-1.9938108	SH F SIL
-3.3128524	<s> AO SIL
-2.7634273	HH AO SIL
-3.1242762	D AO SIL
-4.2863345	SIL AO SIL
-1.2253914	L AO SIL
-3.4647095	B AO SIL
-4.075939	F AO SIL
-1.2946277	R AO SIL
-2.1377168	P AO SIL
-1.8362668	V AO SIL
-3.0707612	T AO SIL
-2.5281484	N AO SIL
-3.6615837	K AO SIL
-0.38152024	S AO SIL
-3.7946584	Y AO SIL
-3.3060055	M AO SIL
-2.8639147	W AO SIL
-3.3278291	G AO SIL
-2.7443194	TH AO SIL
-1.4718773	SH AO SIL
-1.2871293	JH AO SIL
-3.9402008	AE R SIL
-4.526849	D R SIL
-0.49050426	EY R SIL
-0.4773814	IH R SIL
-0.24016942	AO R SIL
-2.0004332	ER R SIL
-1.4415973	AH R SIL
-0.2946824	EH R SIL
-3.946637	V R SIL
-3.7664955	T R SIL
-0.070897356	AW R SIL
-0.3233356	UH R SIL
-0.052956685	IY R SIL
-0.58462393	AA R SIL
-0.6185913	AY R SIL
-0.6320753	UW R SIL
-0.2763133	OY R SIL
-1.8457233	<s> ER SIL
-0.089811705	HH ER SIL
-0.35763356	D ER SIL
-2.2068715	SIL ER SIL
-0.34259367	L ER SIL
-0.21383709	EY ER SIL
-0.5450964	B ER SIL
-1.0747645	F ER SIL
-0.09564577	AO ER SIL
-0.08769524	R ER SIL
-0.15432495	ER ER SIL
-1.6717975	AH ER SIL
-0.7780303	P ER SIL
-0.23789203	V ER SIL
-0.2539539	T ER SIL
-0.32710525	N ER SIL
-0.9488406	Z ER SIL
-0.12732947	AW ER SIL
-0.68197536	K ER SIL
-0.5787739	S ER SIL
-0.2656853	Y ER SIL
-0.5551648	M ER SIL
-0.10182021	IY ER SIL
-0.18236876	OW ER SIL
-0.08130598	DH ER SIL
-0.33394882	AY ER SIL
-0.46275514	UW ER SIL
-0.29368305	W ER SIL
-0.067383066	NG ER SIL
-0.4341728	G ER SIL
-0.7899129	TH ER SIL
-0.29930213	CH ER SIL
-0.3616267	SH ER SIL
-0.38723075	JH ER SIL
-0.17285784	ZH ER SIL
-0.2182666	OY ER SIL
-1.0234561	<s> AH SIL
-2.3966384	HH AH SIL
-1.7912754	D AH SIL
-0.71264064	SIL AH SIL
-1.4605861	L AH SIL
-1.1485281	EY AH SIL
-2.6324313	B AH SIL
-2.124195	F AH SIL
-1.7163428	R AH SIL
-1.6748818	ER AH SIL
-1.7822361	P AH SIL
-1.8654076	V AH SIL
-2.062014	T AH SIL
-1.3937774	N AH SIL
-1.851035	Z AH SIL
-2.5419106	AW AH SIL
-1.8130031	K AH SIL
-2.3880963	S AH SIL
-1.2092924	Y AH SIL
-1.8477601	M AH SIL
-0.77716744	IY AH SIL
-1.1365415	OW AH SIL
-0.38419923	AA AH SIL
-0.0031760936	DH AH SIL
-1.805104	AY AH SIL
-1.7957364	UW AH SIL
-2.850488	W AH SIL
-1.5520053	NG AH SIL
-1.9084628	G AH SIL
-1.1484035	TH AH SIL
-2.365861	CH AH SIL
-1.9341753	SH AH SIL
-2.2286396	JH AH SIL
-1.6734182	ZH AH SIL
-2.978535	OY AH SIL
-1.0618387	AE P SIL
-0.22702473	L P SIL
-0.5383669	EY P SIL
-0.7007169	IH P SIL
-0.6814893	AO P SIL
-0.43663728	R P SIL
-2.079555	ER P SIL
-0.50282955	AH P SIL
-1.1755252	EH P SIL
-1.6967498	AW P SIL
-2.085042	S P SIL
-1.1388122	M P SIL
-0.43840036	IY P SIL
-0.50838256	OW P SIL
-0.653201	AA P SIL
-0.33517787	AY P SIL
-0.6764508	UW P SIL
-0.3006647	OY P SIL
-2.1684167	<s> EH SIL
-4.451294	HH EH SIL
-2.857558	D EH SIL
-2.8112037	SIL EH SIL
-3.4707687	L EH SIL
-4.447064	T EH SIL
-4.741849	S EH SIL
-2.74986	Y EH SIL
-5.2493277	DH EH SIL
-2.9346595	UW EH SIL
-3.5209103	W EH SIL
-2.2376518	TH EH SIL
-3.102165	SH EH SIL
-0.105113804	AE V SIL
-2.8556883	D V SIL
-0.8425153	L V SIL
-0.27781898	EY V SIL
-0.4617634	IH V SIL
-0.073343	AO V SIL
-1.1536938	R V SIL
-0.81549466	ER V SIL
-0.03162896	AH V SIL
-2.8099647	EH V SIL
-1.6426084	T V SIL
-3.6682446	N V SIL
-0.8405533	AW V SIL
-2.2931857	S V SIL
-0.5774015	IY V SIL
-1.110946	OW V SIL
-1.0189626	AA V SIL
-0.27637854	AY V SIL
-0.49206504	UW V SIL
-0.052255128	AE T SIL
-0.9686314	D T SIL
-0.32273924	L T SIL
-0.3093415	EY T SIL
-0.2300368	IH T SIL
-0.46120405	F T SIL
-0.23168825	AO T SIL
-0.3476342	R T SIL
-0.6147153	ER T SIL
-0.21941097	AH T SIL
-0.19062005	P T SIL
-0.21645601	EH T SIL
-1.4775441	V T SIL
-0.3396827	N T SIL
-1.104488	Z T SIL
-0.05244827	AW T SIL
-0.25036386	K T SIL
-0.37532994	S T SIL
-0.05172383	UH T SIL
-1.3392725	M T SIL
-0.27666122	IY T SIL
-0.3906715	OW T SIL
-0.045090936	AA T SIL
-0.13271563	AY T SIL
-0.59018326	UW T SIL
-2.0934052	NG T SIL
-0.7017511	G T SIL
-0.14627433	TH T SIL
-0.0007153263	CH T SIL
-0.003433409	SH T SIL
-2.5651157	JH T SIL
-0.6550536	OY T SIL
-0.34014213	AE N SIL
-2.250817	D N SIL
-1.5918876	L N SIL
-0.513016	EY N SIL
-0.22283737	IH N SIL
-1.5887988	F N SIL
-0.16392112	AO N SIL
-0.52217454	R N SIL
-0.5244206	ER N SIL
-0.5834292	AH N SIL
-0.6034622	P N SIL
-0.49438754	EH N SIL
-2.3738341	T N SIL
-0.52829313	AW N SIL
-3.1780725	K N SIL
-2.3579826	S N SIL
-0.18262544	UH N SIL
-1.8421491	M N SIL
-0.21076559	IY N SIL
-0.37022114	OW N SIL
-0.19358663	AA N SIL
-0.6011816	AY N SIL
-0.30064705	UW N SIL
-2.1738226	NG N SIL
-2.8079882	G N SIL
-0.5701039	TH N SIL
-1.8902304	CH N SIL
-1.9732231	SH N SIL
-1.8546944	JH N SIL
-0.98058134	OY N SIL
-0.09258183	HH Z SIL
-0.007095527	AE Z SIL
-0.0030128364	D Z SIL
-0.0047033858	L Z SIL
-0.12457866	EY Z SIL
-0.39731058	B Z SIL
-0.06038929	IH Z SIL
-0.065925345	AO Z SIL
-0.003919582	R Z SIL
-0.0030733664	ER Z SIL
-0.17216632	AH Z SIL
-0.012077719	P Z SIL
-0.68505573	EH Z SIL
-0.0010736783	V Z SIL
-0.09299662	T Z SIL
-0.014449704	N Z SIL
-0.6946816	AW Z SIL
-0.28331593	K Z SIL
-0.014088652	M Z SIL
-0.11896696	IY Z SIL
-0.11901686	OW Z SIL
-0.012957815	AA Z SIL
-0.00036954996	DH Z SIL
-0.1576192	AY Z SIL
-0.26736516	UW Z SIL
-0.013909348	NG Z SIL
-0.45636702	G Z SIL
-0.1778174	TH Z SIL
-0.11301696	OY Z SIL
-0.3434915	HH AW SIL
-2.8821044	D AW SIL
-0.9764476	L AW SIL
-1.4944938	B AW SIL
-1.5257132	R AW SIL
-2.1210043	ER AW SIL
-3.1033995	P AW SIL
-0.9866192	V AW SIL
-2.0941556	T AW SIL
-0.036994148	N AW SIL
-1.4174389	K AW SIL
-1.9972539	S AW SIL
-1.0553885	Y AW SIL
-0.2870017	IY AW SIL
-0.00089619023	DH AW SIL
-1.0902526	W AW SIL
-2.380619	G AW SIL
-3.989194	TH AW SIL
-0.37292784	CH AW SIL
-3.1953795	SH AW SIL
-0.459182	AE K SIL
-2.258703	D K SIL
-0.5199579	L K SIL
-0.2452437	EY K SIL
-1.4414978	B K SIL
-0.70962733	IH K SIL
-0.41391894	AO K SIL
-0.37968844	R K SIL
-0.38559574	ER K SIL
-1.0519745	AH K SIL
-1.4021508	EH K SIL
-2.7308357	T K SIL
-3.1736884	N K SIL
-1.0672854	Z K SIL
-0.44602144	AW K SIL
-1.014426	S K SIL
-0.25492677	UH K SIL
-0.4315172	IY K SIL
-0.35807356	OW K SIL
-0.5918876	AA K SIL
-0.10168864	AY K SIL
-0.37109494	UW K SIL
-0.3526694	NG K SIL
-0.183292	SH K SIL
-0.6423943	OY K SIL
-0.2347863	HH S SIL
-0.9232292	AE S SIL
-2.0268788	D S SIL
-0.5609323	L S SIL
-0.21634753	EY S SIL
-0.45926973	IH S SIL
-0.04470614	F S SIL
-0.37671924	AO S SIL
-0.2606644	R S SIL
-1.1419827	ER S SIL
-0.35248697	AH S SIL
-0.054414786	P S SIL
-0.53559893	EH S SIL
-0.033455357	T S SIL
-0.36822385	N S SIL
-0.09711294	AW S SIL
-0.4407373	K S SIL
-0.59454274	UH S SIL
-3.2015004	M S SIL
-0.5982877	IY S SIL
-0.92282355	OW S SIL
-1.5549793	AA S SIL
-0.38949808	AY S SIL
-0.4197116	UW S SIL
-2.571342	NG S SIL
-0.06311295	TH S SIL
-0.1437233	OY S SIL
-3.6176827	B UH SIL
-4.2599893	Y UH SIL
-0.39473262	AE M SIL
-3.0150023	D M SIL
-1.309664	L M SIL
-0.12585141	EY M SIL
-0.3203103	IH M SIL
-1.4681621	AO M SIL
-0.47895992	R M SIL
-1.0229543	ER M SIL
-0.2833959	AH M SIL
-2.9424872	P M SIL
-0.28734547	EH M SIL
-2.25332	N M SIL
-2.012629	Z M SIL
-0.8394946	AW M SIL
-2.9068384	S M SIL
-2.4362402	UH M SIL
-0.5464859	IY M SIL
-0.41131046	OW M SIL
-0.868248	AA M SIL
-0.1303735	AY M SIL
-0.23062167	UW M SIL
-1.2234966	W M SIL
-2.2036614	G M SIL
-2.9841504	SH M SIL
-2.935372	OY M SIL
-1.9009228	<s> IY SIL
-0.06118235	HH IY SIL
-0.30870804	D IY SIL
-2.0171297	SIL IY SIL
-0.10449285	L IY SIL
-0.5134665	EY IY SIL
-0.098801956	B IY SIL
-1.0445182	F IY SIL
-0.29402095	AO IY SIL
-0.40795013	R IY SIL
-0.09493755	ER IY SIL
-0.90443355	P IY SIL
-0.4613229	V IY SIL
-0.1408823	T IY SIL
-0.20318583	N IY SIL
-0.22369011	Z IY SIL
-0.16751806	AW IY SIL
-0.44868013	K IY SIL
-0.4228595	S IY SIL
-0.18702872	Y IY SIL
-0.14708593	M IY SIL
-0.065384686	OW IY SIL
-0.27791265	AA IY SIL
-0.68581593	DH IY SIL
-0.8913127	AY IY SIL
-0.7270969	UW IY SIL
-0.1928347	W IY SIL
-0.111739144	NG IY SIL
-0.14428063	G IY SIL
-0.45041782	TH IY SIL
-1.1480335	CH IY SIL
-0.035509087	SH IY SIL
-0.45055908	JH IY SIL
-1.9437654	ZH IY SIL
-0.8919908	OY IY SIL
-0.26366642	<s> OW SIL
-1.965142	HH OW SIL
-0.55400443	D OW SIL
-1.0374522	SIL OW SIL
-0.51638	L OW SIL
-0.64853185	EY OW SIL
-1.2189412	B OW SIL
-1.199571	F OW SIL
-0.74144393	R OW SIL
-0.67377865	ER OW SIL
-1.794777	P OW SIL
-1.270295	V OW SIL
-0.8928149	T OW SIL
-0.13275534	N OW SIL
-0.55508107	Z OW SIL
-0.7783668	K OW SIL
-0.085829794	S OW SIL
-0.35654977	Y OW SIL
-1.8326482	M OW SIL
-0.15293933	IY OW SIL
-0.29229334	DH OW SIL
-0.49205458	AY OW SIL
-1.2411216	UW OW SIL
-1.2403852	W OW SIL
-0.26726538	G OW SIL
-1.7672048	TH OW SIL
-1.6308498	CH OW SIL
-0.5757424	SH OW SIL
-0.6146972	JH OW SIL
-0.12008392	OY OW SIL
-0.8784633	<s> AA SIL
-1.6696573	HH AA SIL
-2.461431	D AA SIL
-1.9032555	SIL AA SIL
-1.6124058	L AA SIL
-2.2180662	EY AA SIL
-2.390051	B AA SIL
-4.02908	F AA SIL
-2.0260162	R AA SIL
-2.7619321	ER AA SIL
-2.893427	P AA SIL
-2.790929	V AA SIL
-2.9700575	T AA SIL
-3.153211	N AA SIL
-2.8907175	Z AA SIL
-3.4933178	K AA SIL
-2.3077433	S AA SIL
-1.9032264	Y AA SIL
-2.1515524	M AA SIL
-2.7181253	IY AA SIL
-1.2340611	UW AA SIL
-2.9822733	W AA SIL
-3.9035206	G AA SIL
-2.1097314	TH AA SIL
-3.121371	CH AA SIL
-1.9335071	SH AA SIL
-3.203281	JH AA SIL
-0.58010256	EY DH SIL
-0.02296565	IH DH SIL
-2.5557811	R DH SIL
-4.2621503	AH DH SIL
-0.014122186	AW DH SIL
-1.3821356	IY DH SIL
-1.5047021	OW DH SIL
-3.6742527	AA DH SIL
-0.27384084	AY DH SIL
-0.29748985	UW DH SIL
-0.038178965	<s> AY SIL
-0.56285346	HH AY SIL
-0.75268626	D AY SIL
-0.091338225	SIL AY SIL
-1.2441846	L AY SIL
-0.020358566	B AY SIL
-1.3914362	F AY SIL
-1.1006606	R AY SIL
-2.3990388	ER AY SIL
-1.147192	P AY SIL
-2.3535998	V AY SIL
-1.9607005	T AY SIL
-1.5875745	N AY SIL
-3.518065	Z AY SIL
-0.7597855	K AY SIL
-1.8508034	S AY SIL
-0.24721248	M AY SIL
-0.23067313	IY AY SIL
-0.05855147	DH AY SIL
-0.29273453	AY AY SIL
-0.8851794	W AY SIL
-1.0630648	G AY SIL
-0.93229574	TH AY SIL
-0.9215822	SH AY SIL
-1.6820227	JH AY SIL
-0.12297739	HH UW SIL
-0.15452224	D UW SIL
-1.044927	SIL UW SIL
-0.7448797	L UW SIL
-1.7429606	EY UW SIL
-1.0093403	B UW SIL
-1.6836149	F UW SIL
-0.429172	R UW SIL
-0.6466756	ER UW SIL
-1.0905268	P UW SIL
-0.09416688	V UW SIL
-0.013514374	T UW SIL
-0.17507976	N UW SIL
-1.7430025	Z UW SIL
-1.5805607	K UW SIL
-1.4924536	S UW SIL
-0.20396744	Y UW SIL
-2.1386347	M UW SIL
-0.32110426	IY UW SIL
-1.3076395	AA UW SIL
-0.098032124	AY UW SIL
-1.3469334	W UW SIL
-1.24999	G UW SIL
-2.463582	TH UW SIL
-0.79481375	CH UW SIL
-0.69690907	SH UW SIL
-1.2351788	JH UW SIL
-1.5415496	ZH UW SIL
-3.3700905	R W SIL
-1.7867117	AW W SIL
-0.9538011	AE NG SIL
-1.4553053	EY NG SIL
-0.07940755	IH NG SIL
-0.12004679	AO NG SIL
-0.20027606	R NG SIL
-0.20976926	ER NG SIL
-0.19708958	AH NG SIL
-2.3717842	EH NG SIL
-0.26428828	S NG SIL
-0.31025466	UH NG SIL
-0.2885078	IY NG SIL
-1.5122093	OW NG SIL
-1.2460032	AA NG SIL
-0.36462474	AY NG SIL
-1.0277184	UW NG SIL
-0.76414037	AE G SIL
-0.37546664	EY G SIL
-1.2262272	B G SIL
-0.96948713	IH G SIL
-0.13093679	AO G SIL
-1.6024041	R G SIL
-0.9448611	ER G SIL
-1.6133345	AH G SIL
-0.62448984	P G SIL
-0.6797683	EH G SIL
-3.081805	N G SIL
-0.9540637	IY G SIL
-0.86342084	OW G SIL
-0.69484097	AA G SIL
-2.2243085	AY G SIL
-1.3875662	UW G SIL
-3.4596405	NG G SIL
-0.26432195	AE TH SIL
-0.09095257	D TH SIL
-0.18053639	L TH SIL
-0.27828586	EY TH SIL
-0.28214005	B TH SIL
-0.7690968	IH TH SIL
-0.04972682	F TH SIL
-0.25524908	AO TH SIL
-0.19399416	R TH SIL
-0.104627706	ER TH SIL
-0.9770398	AH TH SIL
-0.35215026	P TH SIL
-0.13655616	EH TH SIL
-0.2800663	V TH SIL
-0.08005756	T TH SIL
-0.3509581	N TH SIL
-0.17736277	AW TH SIL
-0.00980744	K TH SIL
-0.1773085	S TH SIL
-0.051422067	UH TH SIL
-1.4345715	M TH SIL
-0.62154424	IY TH SIL
-0.0112958085	OW TH SIL
-0.796349	AA TH SIL
-0.2534885	AY TH SIL
-0.065849334	UW TH SIL
-2.4265132	NG TH SIL
-0.6218876	AE CH SIL
-1.01257	L CH SIL
-1.3112637	EY CH SIL
-0.04883037	IH CH SIL
-1.2443388	AO CH SIL
-0.7287748	R CH SIL
-0.3886477	ER CH SIL
-0.0587718	AH CH SIL
-3.1033192	P CH SIL
-0.59524417	EH CH SIL
-1.0004507	T CH SIL
-0.53497493	N CH SIL
-0.33281618	AW CH SIL
-0.25236285	IY CH SIL
-0.41746515	OW CH SIL
-0.42414236	AA CH SIL
-1.4755083	UW CH SIL
-0.2911343	OY CH SIL
-0.6929536	AE SH SIL
-1.6960434	L SH SIL
-4.492972	EY SH SIL
-0.5290191	IH SH SIL
-2.2555256	AO SH SIL
-0.97260827	R SH SIL
-1.9408631	ER SH SIL
-0.76253366	AH SH SIL
-0.7630998	EH SH SIL
-0.2657817	V SH SIL
-3.2684293	N SH SIL
-0.76435816	AW SH SIL
-0.5494224	UH SH SIL
-2.1915822	IY SH SIL
-2.9952445	OW SH SIL
-0.7099784	AA SH SIL
-1.4222653	AY SH SIL
-2.3537989	UW SH SIL
-1.4516069	G SH SIL
-1.8429667	AE JH SIL
-0.28773022	D JH SIL
-1.2718108	L JH SIL
-0.34601614	EY JH SIL
-0.37641767	IH JH SIL
-1.6065866	AO JH SIL
-0.19839314	R JH SIL
-0.9815758	ER JH SIL
-0.26871574	AH JH SIL
-0.5526848	P JH SIL
-0.54869634	EH JH SIL
-0.54788566	N JH SIL
-1.0902606	AW JH SIL
-0.999357	IY JH SIL
-1.2162423	OW JH SIL
-0.79407096	AA JH SIL
-1.0700154	AY JH SIL
-0.16512628	UW JH SIL
-0.61711895	R ZH SIL
-2.73091	EH ZH SIL
-0.64147234	IY ZH SIL
-0.2877503	AA ZH SIL
-2.330113	UW ZH SIL
-1.254282	<s> OY SIL
-1.2838752	HH OY SIL
-1.4526743	SIL OY SIL
-0.9964831	L OY SIL
-0.25107375	B OY SIL
-0.7185596	F OY SIL
-0.6785916	R OY SIL
-0.34518453	ER OY SIL
-3.3860579	P OY SIL
-2.0161943	V OY SIL
-0.92487377	T OY SIL
-1.2405362	N OY SIL
-1.2136865	K OY SIL
-1.8067752	S OY SIL
-2.2133114	M OY SIL
-0.19172771	W OY SIL
-0.50810415	JH OY SIL
-5.734424	SIL HH L
-3.0257576	M HH L
-1.8796134	<s> AE L
-2.7091591	HH AE L
-1.5335592	D AE L
-1.8162814	SIL AE L
-4.326634	L AE L
-1.4548999	B AE L
-1.58704	F AE L
-1.9492953	R AE L
-0.59794784	ER AE L
-1.0592045	P AE L
-0.41672382	V AE L
-1.1367993	T AE L
-1.0322192	N AE L
-2.093623	Z AE L
-1.494786	K AE L
-1.2787042	S AE L
-2.2165675	Y AE L
-1.8962668	M AE L
-0.6481872	IY AE L
-2.7192187	AY AE L
-0.007190814	UW AE L
-1.3200271	W AE L
-0.8302294	G AE L
-2.0237803	TH AE L
-1.2734113	CH AE L
-0.13472433	SH AE L
-2.8423922	JH AE L
-0.115274735	OY AE L
-1.9748487	AE D L
-4.781494	SIL D L
-2.065127	L D L
-3.4849539	EY D L
-1.8372755	IH D L
-1.463925	AO D L
-1.489562	R D L
-2.2321799	ER D L
-1.8085301	AH D L
-2.0784152	EH D L
-4.070078	V D L
-2.331327	N D L
-3.6582901	Z D L
-1.2767951	AW D L
-2.4742675	UH D L
-1.9341985	IY D L
-3.0456223	OW D L
-2.1449518	AA D L
-2.3143005	AY D L
-2.0791545	UW D L
-1.5528514	HH SIL L
-1.0765746	AE SIL L
-1.6493762	D SIL L
-1.6499815	SIL SIL L
-1.6418043	L SIL L
-1.6812989	EY SIL L
-1.7726382	B SIL L
-2.0574615	IH SIL L
-1.9432008	F SIL L
-1.877419	AO SIL L
-1.6140703	R SIL L
-1.5854944	ER SIL L
-1.2420851	AH SIL L
-1.8724501	P SIL L
-1.301448	EH SIL L
-1.6449294	V SIL L
-1.6381441	T SIL L
-1.781241	N SIL L
-1.6428553	Z SIL L
-1.5398934	AW SIL L
-1.7822158	K SIL L
-1.7226741	S SIL L
-1.8246832	M SIL L
-1.5701919	IY SIL L
-1.4634182	OW SIL L
-1.6966023	AA SIL L
-1.8070463	DH SIL L
-1.5055732	AY SIL L
-1.5454432	UW SIL L
-1.703209	NG SIL L
-1.709644	G SIL L
-1.7469568	TH SIL L
-1.6697178	CH SIL L
-1.6741393	SH SIL L
-1.8049663	JH SIL L
-1.7260679	ZH SIL L
-1.7460446	OY SIL L
-4.232632	AH L L
-2.606122	OW L L
-3.1552594	AY L L
-1.8074448	<s> EY L
-0.7642108	HH EY L
-1.3105623	D EY L
-1.640825	SIL EY L
-2.8194945	L EY L
-1.3452964	B EY L
-0.9893399	F EY L
-1.5367167	R EY L
-2.688222	ER EY L
-1.0793605	P EY L
-0.705806	V EY L
-1.2119871	T EY L
-1.6506513	N EY L
-2.138299	Z EY L
-1.8692976	K EY L
-1.119551	S EY L
-0.5694095	Y EY L
-1.6299157	M EY L
-2.2663898	DH EY L
-1.7914667	W EY L
-0.5203718	NG EY L
-1.3645548	G EY L
-1.010487	TH EY L
-2.9629393	CH EY L
-2.6940598	SH EY L
-1.1294519	JH EY L
-1.8719962	<s> B L
-0.9514271	AE B L
-2.3626163	D B L
-1.3901502	SIL B L
-2.5120773	L B L
-2.7621596	EY B L
-1.53565	IH B L
-1.2635317	F B L
-2.180228	AO B L
-2.205429	R B L
-2.0875847	ER B L
-0.9555875	AH B L
-1.786886	EH B L
-1.4408803	T B L
-1.4686306	N B L
-3.3309174	Z B L
-1.9845052	AW B L
-1.3131899	M B L
-1.320893	IY B L
-1.4812407	OW B L
-1.0281879	AA B L
-2.9278533	AY B L
-2.551133	UW B L
-0.84672415	NG B L
-2.1239681	CH B L
-2.3187325	<s> IH L
-1.8796965	HH IH L
-1.4570587	D IH L
-1.9623313	SIL IH L
-2.1963663	L IH L
-0.85480356	B IH L
-0.8952191	F IH L
-1.177263	R IH L
-1.8722389	ER IH L
-1.4939761	P IH L
-1.2006286	V IH L
-0.7857766	T IH L
-1.7277818	N IH L
-2.0444841	Z IH L
-2.4920208	AW IH L
-1.0933015	K IH L
-1.2654555	S IH L
-3.587704	Y IH L
-1.1160063	M IH L
-2.9777203	IY IH L
-2.8235571	OW IH L
-4.4605403	DH IH L
-1.966968	UW IH L
-0.83918	W IH L
-1.1312206	G IH L
-3.4720163	TH IH L
-0.5264126	CH IH L
-1.6290249	SH IH L
-1.8797305	JH IH L
-1.6465864	<s> F L
-2.8693202	AE F L
-2.4201047	D F L
-1.3038352	SIL F L
-3.1929474	L F L
-0.81457925	EY F L
-2.1928053	IH F L
-2.7598178	AO F L
-3.2292616	R F L
-1.2161585	ER F L
-1.3148106	AH F L
-2.5810094	P F L
-2.7163785	EH F L
-2.4512184	T F L
-0.8547321	N F L
-2.871011	S F L
-1.7378883	M F L
-1.0136682	IY F L
-2.0060036	OW F L
-1.4318464	AA F L
-1.6800431	AY F L
-2.376854	UW F L
-0.3104655	<s> AO L
-0.65708697	HH AO L
-2.463553	D AO L
-0.28132495	SIL AO L
-2.6110198	L AO L
-0.66752684	B AO L
-1.5195376	F AO L
-1.47636	R AO L
-1.029065	ER AO L
-1.1447552	P AO L
-0.5483788	V AO L
-1.068598	T AO L
-2.3432174	N AO L
-0.9176433	Z AO L
-0.5767888	K AO L
-1.1198323	S AO L
-3.780546	Y AO L
-0.89879555	M AO L
-0.91633236	IY AO L
-0.038333856	DH AO L
-0.91565603	W AO L
-1.6743816	G AO L
-2.7791896	TH AO L
-1.8830196	CH AO L
-1.504848	SH AO L
-3.0674882	JH AO L
-4.387512	D R L
-1.1811645	IH R L
-2.6711855	AO R L
-2.7091973	AH R L
-2.1357894	EH R L
-1.813931	AW R L
-1.3039359	UH R L
-4.206957	IY R L
-1.5500726	AA R L
-1.5533537	AY R L
-0.60046446	<s> ER L
-2.5825367	HH ER L
-1.9260653	D ER L
-0.83366644	SIL ER L
-1.3028513	L ER L
-1.8810257	B ER L
-2.355459	F ER L
-3.6244278	R ER L
-1.7782936	P ER L
-1.9967558	V ER L
-2.0582597	T ER L
-3.3532405	N ER L
-1.9535885	Z ER L
-2.5534413	AW ER L
-1.5417663	K ER L
-2.6020634	S ER L
-1.8590101	Y ER L
-1.5954007	M ER L
-2.392669	DH ER L
-1.0820501	AY ER L
-1.0393977	W ER L
-0.4678131	G ER L
-3.0692825	TH ER L
-2.6375408	CH ER L
-1.258784	SH ER L
-2.6419866	JH ER L
-2.283821	<s> AH L
-1.2557857	HH AH L
-0.99151707	D AH L
-1.8918422	SIL AH L
-2.7771244	L AH L
-1.3523027	EY AH L
-0.48003745	B AH L
-0.32824683	F AH L
-0.19554459	AO AH L
-1.243769	R AH L
-0.52743196	ER AH L
-0.48336387	P AH L
-0.5164034	V AH L
-0.6890347	T AH L
-0.96040154	N AH L
-0.8968204	Z AH L
-0.3807056	AW AH L
-0.8100739	K AH L
-1.0906544	S AH L
-0.57891405	Y AH L
-1.1773113	M AH L
-1.1309326	IY AH L
-1.2051613	OW AH L
-2.917739	DH AH L
-0.73284763	AY AH L
-0.28426632	UW AH L
-1.1283432	W AH L
-1.0750341	NG AH L
-0.49980283	G AH L
-1.1137569	TH AH L
-1.1417059	CH AH L
-1.3538367	SH AH L
-1.3594964	JH AH L
-3.4905016	ZH AH L
-0.23498869	OY AH L
-1.16061	<s> P L
-1.7328436	AE P L
-1.8675169	D P L
-0.96360034	SIL P L
-1.1681492	L P L
-2.0579147	EY P L
-0.18304071	B P L
-0.684357	IH P L
-1.5596251	F P L
-0.9546931	R P L
-1.1591011	ER P L
-1.4883593	AH P L
-0.23076545	P P L
-2.550852	EH P L
-1.1614863	T P L
-0.358472	N P L
-2.85569	Z P L
-1.1208346	S P L
-0.7646663	M P L
-1.5290078	IY P L
-1.6381623	OW P L
-2.3366356	AA P L
-2.4142938	AY P L
-1.95024	UW P L
-0.04491952	NG P L
-0.58470964	TH P L
-1.1792715	SH P L
-1.1647673	<s> EH L
-0.56347215	HH EH L
-1.0685003	D EH L
-1.14983	SIL EH L
-2.2906485	L EH L
-0.922307	B EH L
-0.45479703	F EH L
-1.8506393	R EH L
-2.548783	ER EH L
-1.3210518	P EH L
-1.3135997	V EH L
-0.71497446	T EH L
-1.7497864	N EH L
-1.2600492	Z EH L
-1.6836104	K EH L
-0.60427344	S EH L
-1.0482165	Y EH L
-1.4161762	M EH L
-2.2399013	IY EH L
-1.4108294	OW EH L
-0.96772087	AA EH L
-0.3549517	AY EH L
-1.6307354	UW EH L
-0.68256426	W EH L
-2.6682281	G EH L
-1.2710139	TH EH L
-1.6870753	CH EH L
-0.41704574	SH EH L
-1.3739544	JH EH L
-2.9426064	AE V L
-3.0955403	SIL V L
-1.6008761	EY V L
-1.334242	IH V L
-2.4699163	AH V L
-3.244595	EH V L
-2.8584118	IY V L
-3.0290165	OW V L
-3.2173922	AA V L
-1.6904823	AY V L
-3.3307698	UW V L
-2.8970518	AE T L
-2.7298915	L T L
-1.6759748	EY T L
-2.7371767	IH T L
-1.5612767	F T L
-2.662404	AO T L
-1.6234702	R T L
-2.622998	ER T L
-1.613848	AH T L
-1.7856678	P T L
-2.8501387	EH T L
-1.4223291	N T L
-1.650515	Z T L
-1.7392647	AW T L
-1.3590956	K T L
-2.2536812	S T L
-2.9085705	UH T L
-1.5767809	IY T L
-2.7246134	OW T L
-2.3415391	AA T L
-1.646255	AY T L
-1.3255751	UW T L
-2.9621584	NG T L
-1.5077789	OY T L
-2.7945354	AE N L
-5.335281	SIL N L
-1.7860879	EY N L
-3.0466952	IH N L
-2.2679734	AO N L
-3.874674	R N L
-2.3028681	ER N L
-2.0597713	AH N L
-2.7039752	EH N L
-3.0528665	T N L
-3.2869287	AW N L
-2.2668061	IY N L
-0.5743724	OW N L
-3.7435112	AA N L
-2.5762806	AY N L
-1.7881839	UW N L
-4.9105544	AE Z L
-4.295701	D Z L
-3.5945694	L Z L
-3.7788384	EY Z L
-3.6287134	IH Z L
-2.6197383	AH Z L
-3.587224	EH Z L
-2.4484215	N Z L
-3.6522563	M Z L
-3.3874757	IY Z L
-3.3192284	OW Z L
-3.5214481	AA Z L
-2.3820407	AY Z L
-2.8762517	NG Z L
-2.0227158	OY Z L
-2.5663762	<s> AW L
-2.0117393	HH AW L
-3.019059	D AW L
-2.451765	SIL AW L
-3.4579668	L AW L
-3.4763303	B AW L
-1.3575426	F AW L
-1.6783742	R AW L
-2.6981359	P AW L
-2.6568928	V AW L
-3.277221	T AW L
-4.009186	N AW L
-1.83817	K AW L
-2.40399	S AW L
-3.4580164	M AW L
-2.946732	TH AW L
-0.850659	JH AW L
-1.136176	<s> K L
-2.4770663	AE K L
-0.96364903	D K L
-1.1654118	SIL K L
-2.077656	L K L
-3.446938	EY K L
-1.4263825	B K L
-1.3222326	IH K L
-1.2665476	F K L
-1.918986	AO K L
-1.7470714	R K L
-2.1972861	ER K L
-1.5229777	AH K L
-1.9653852	P K L
-1.9410237	EH K L
-1.1848828	T K L
-0.64929986	N K L
-1.6185963	AW K L
-1.2874403	S K L
-2.8791971	UH K L
-1.930059	M K L
-1.9124498	IY K L
-1.7704358	OW K L
-2.08168	AA K L
-1.345268	AY K L
-1.7365968	UW K L
-1.949942	NG K L
-0.7242373	TH K L
-1.9102926	SH K L
-1.9658408	<s> S L
-3.278044	AE S L
-2.1937382	D S L
-1.6295122	SIL S L
-2.3608303	L S L
-2.4940233	EY S L
-3.612281	B S L
-2.292527	IH S L
-3.2705476	F S L
-2.4236238	AO S L
-1.1042166	R S L
-2.711145	ER S L
-1.4911393	AH S L
-3.2790525	P S L
-2.3362129	EH S L
-1.2400961	V S L
-3.956184	T S L
-2.42365	N S L
-2.507907	AW S L
-2.363436	K S L
-2.6057565	M S L
-2.250865	IY S L
-1.6329013	OW S L
-2.1807904	AA S L
-1.3956507	AY S L
-1.3673711	UW S L
-2.8859706	NG S L
-1.6430323	G S L
-3.0047672	TH S L
-2.7558475	OY S L
-2.818174	M Y L
-0.5777185	SIL UH L
-0.79314786	B UH L
-0.19313617	F UH L
-0.94956046	P UH L
-1.5488706	V UH L
-2.4751697	N UH L
-1.615213	W UH L
-0.9301538	CH UH L
-4.2838554	SH UH L
-1.4551902	JH UH L
-3.5883431	<s> M L
-2.217088	AE M L
-4.043613	SIL M L
-1.9876144	EY M L
-2.5552843	IH M L
-1.8915459	R M L
-1.5404615	ER M L
-2.6703815	AH M L
-2.895096	EH M L
-1.6548233	IY M L
-2.0209196	OW M L
-1.7918702	AA M L
-2.6350589	AY M L
-3.541327	UW M L
-2.1117337	HH IY L
-1.3587259	D IY L
-2.510328	SIL IY L
-3.6672406	L IY L
-2.6858683	B IY L
-0.35666683	F IY L
-1.5254365	R IY L
-2.4390268	ER IY L
-1.6072886	P IY L
-1.1473547	V IY L
-1.8918722	T IY L
-2.135409	N IY L
-1.4636159	Z IY L
-2.13166	K IY L
-1.5834085	S IY L
-0.52632105	Y IY L
-1.7540696	M IY L
-0.6148095	IY IY L
-1.590067	AA IY L
-4.203731	DH IY L
-1.4390689	W IY L
-1.8850024	G IY L
-1.7572731	TH IY L
-3.3086512	CH IY L
-2.0987673	SH IY L
-2.3441644	JH IY L
-1.2936461	<s> OW L
-0.3295673	HH OW L
-2.0296533	D OW L
-0.73657906	SIL OW L
-1.4103986	L OW L
-1.9893479	EY OW L
-0.81957257	B OW L
-0.4605499	F OW L
-1.1468637	R OW L
-0.62284297	ER OW L
-1.105211	P OW L
-0.7403506	V OW L
-0.41041982	T OW L
-2.6220164	N OW L
-1.7902229	Z OW L
-0.50424343	K OW L
-0.97404003	S OW L
-1.4843565	Y OW L
-1.615745	M OW L
-1.2587106	IY OW L
-0.293168	AA OW L
-1.3544843	AY OW L
-1.2998064	W OW L
-0.8834232	G OW L
-1.2450112	TH OW L
-2.5490868	CH OW L
-0.56579727	SH OW L
-1.3962369	JH OW L
-1.0875865	OY OW L
-1.682154	<s> AA L
-1.2317517	HH AA L
-0.9418669	D AA L
-1.9518735	SIL AA L
-2.3688402	L AA L
-1.7836797	B AA L
-0.5272862	F AA L
-1.7824905	R AA L
-1.4744042	ER AA L
-1.3761657	P AA L
-0.18713784	V AA L
-1.4195633	T AA L
-1.554408	N AA L
-0.2370468	Z AA L
-1.2009263	K AA L
-0.6126256	S AA L
-1.5901203	Y AA L
-1.7969385	M AA L
-0.9791269	IY AA L
-0.51281756	OW AA L
-0.8039522	AY AA L
-1.1249671	UW AA L
-1.8932877	W AA L
-2.1395462	G AA L
-0.7937416	TH AA L
-3.558249	CH AA L
-2.7591069	SH AA L
-1.1692958	JH AA L
-1.0645587	UW DH L
-1.6748008	<s> AY L
-1.3548471	HH AY L
-1.6161412	D AY L
-1.5018129	SIL AY L
-2.303085	L AY L
-3.4808288	B AY L
-1.9751587	F AY L
-2.6624713	R AY L
-1.0323977	P AY L
-1.7426878	V AY L
-1.6351166	T AY L
-2.3152149	N AY L
-1.3932488	Z AY L
-2.1706371	K AY L
-0.9574648	S AY L
-0.5745485	Y AY L
-1.0722548	M AY L
-0.613392	W AY L
-1.1866714	G AY L
-2.4276311	TH AY L
-0.07305733	CH AY L
-1.3989737	SH AY L
-1.0726892	JH AY L
-2.9200096	HH UW L
-2.1369328	D UW L
-1.2195115	SIL UW L
-2.5173457	L UW L
-1.1791787	B UW L
-0.3040712	F UW L
-1.2860343	R UW L
-1.5085936	ER UW L
-0.35692185	P UW L
-1.5737767	V UW L
-2.7496688	T UW L
-1.9747833	N UW L
-1.4749968	Z UW L
-0.11200745	K UW L
-1.8977658	S UW L
-1.634229	Y UW L
-3.0719943	M UW L
-1.7954407	IY UW L
-0.028654331	AA UW L
-1.5099734	W UW L
-0.67737335	G UW L
-2.8513567	TH UW L
-2.78825	CH UW L
-2.8140461	SH UW L
-0.6115499	JH UW L
-3.7798555	AH W L
-2.732513	AE NG L
-2.044642	IH NG L
-1.8214337	AO NG L
-4.2450657	AH NG L
-1.5679526	EH NG L
-1.2442205	<s> G L
-2.0775561	AE G L
-1.1676458	SIL G L
-1.013862	EY G L
-2.5599802	IH G L
-2.5489185	AO G L
-3.4639444	R G L
-1.7307932	ER G L
-1.5308986	AH G L
-1.8208728	EH G L
-1.3806295	N G L
-2.7531452	S G L
-2.3094351	IY G L
-1.0825005	OW G L
-2.083017	AA G L
-1.393899	AY G L
-1.7335141	UW G L
-0.6920946	NG G L
-0.98716664	AE TH L
-4.6930485	SIL TH L
-1.6869365	EY TH L
-3.6215987	IH TH L
-2.2024596	F TH L
-2.4223356	R TH L
-1.2413913	ER TH L
-3.152085	AH TH L
-1.3502011	EH TH L
-1.93186	N TH L
-2.6078632	AW TH L
-3.0989597	OW TH L
-2.653979	AA TH L
-0.7059959	AY TH L
-1.803764	UW TH L
-2.1947834	AE CH L
-4.238439	SIL CH L
-2.6163938	IH CH L
-2.4222488	R CH L
-2.5973153	ER CH L
-2.8992074	N CH L
-2.2719824	IY CH L
-3.5017567	AA CH L
-3.7476761	<s> SH L
-1.9360862	AE SH L
-3.2950811	SIL SH L
-2.3542264	IH SH L
-1.7171497	R SH L
-2.7308362	AH SH L
-0.9534371	EH SH L
-3.1605487	AA SH L
-3.8227115	AE JH L
-3.6738818	EY JH L
-2.267688	IH JH L
-1.6693261	R JH L
-3.353013	EH JH L
-1.8704083	N JH L
-2.983941	AA JH L
-1.9385757	UW JH L
-0.31418186	<s> OY L
-0.87439966	HH OY L
-0.65294236	D OY L
-0.21201797	SIL OY L
-0.9289396	B OY L
-0.34875217	F OY L
-1.336679	R OY L
-1.161039	P OY L
-0.19853446	T OY L
-0.3763665	K OY L
-0.017324658	S OY L
-0.7632421	M OY L
-1.8819184	G OY L
-2.7203844	JH OY L
-2.412254	<s> HH EY
-2.170414	SIL HH EY
-2.0821314	L HH EY
-2.1497707	EY HH EY
-0.957316	IH HH EY
-2.6610553	R HH EY
-3.5410566	ER HH EY
-1.725672	AH HH EY
-2.3577554	T HH EY
-1.5777179	N HH EY
-1.4724126	Z HH EY
-1.4415189	AW HH EY
-1.0943831	K HH EY
-1.7792014	S HH EY
-2.683622	IY HH EY
-0.31718835	AY HH EY
-0.32567137	G HH EY
-1.4819858	<s> D EY
-0.031425234	D D EY
-1.1151041	SIL D EY
-3.3797884	L D EY
-2.8997087	EY D EY
-3.4116561	B D EY
-2.7793846	IH D EY
-2.7193766	R D EY
-1.9982053	ER D EY
-1.978232	AH D EY
-3.0081344	EH D EY
-2.678076	V D EY
-1.249586	T D EY
-2.6375384	N D EY
-2.1439643	Z D EY
-3.5782979	AW D EY
-0.78786385	K D EY
-0.41045526	S D EY
-2.971218	M D EY
-2.6991758	IY D EY
-2.7053623	AA D EY
-4.3799605	AY D EY
-3.0542514	UW D EY
-2.8357937	NG D EY
-3.3232737	G D EY
-0.59037316	TH D EY
-2.9269476	D SIL EY
-2.7819507	L SIL EY
-2.8681145	EY SIL EY
-3.0866988	B SIL EY
-2.090692	IH SIL EY
-3.2450309	F SIL EY
-3.0901024	AO SIL EY
-2.6706362	R SIL EY
-2.7267833	ER SIL EY
-2.659529	AH SIL EY
-3.4355583	P SIL EY
-2.3190236	EH SIL EY
-2.557459	V SIL EY
-2.948028	T SIL EY
-2.5326986	N SIL EY
-2.8582602	Z SIL EY
-3.111321	AW SIL EY
-3.0397136	K SIL EY
-3.007639	S SIL EY
-2.9721432	M SIL EY
-2.5387874	IY SIL EY
-3.0911245	OW SIL EY
-3.1466188	AA SIL EY
-2.9789212	DH SIL EY
-2.8883271	AY SIL EY
-3.0365076	UW SIL EY
-2.8734765	NG SIL EY
-2.94723	G SIL EY
-2.3398285	TH SIL EY
-3.0583365	CH SIL EY
-3.3550203	SH SIL EY
-3.374604	JH SIL EY
-2.8593974	OY SIL EY
-1.0653666	<s> L EY
-2.3606224	AE L EY
-2.1030247	D L EY
-1.1266261	SIL L EY
-2.538367	EY L EY
-1.3307211	B L EY
-1.9132288	IH L EY
-1.3628923	F L EY
-3.225464	AO L EY
-3.1594865	R L EY
-2.5879505	ER L EY
-1.8424691	AH L EY
-0.44239885	P L EY
-3.849714	EH L EY
-2.0616055	V L EY
-2.9048543	T L EY
-2.6821241	N L EY
-0.52857435	Z L EY
-1.0952514	K L EY
-1.0186352	S L EY
-2.5640209	M L EY
-1.3584692	IY L EY
-2.9460196	OW L EY
-2.6171942	AA L EY
-2.6799645	AY L EY
-1.9896637	UW L EY
-1.6400889	G L EY
-2.2899737	SH L EY
-2.1933327	OY L EY
-2.4501758	<s> B EY
-1.9810752	SIL B EY
-2.4154885	L B EY
-2.7491014	IH B EY
-1.6118155	AO B EY
-2.160592	R B EY
-1.36008	ER B EY
-2.2116184	AH B EY
-2.633412	T B EY
-2.012946	N B EY
-2.6240437	S B EY
-2.783329	M B EY
-2.8721905	IY B EY
-0.8849255	OW B EY
-2.9853702	AY B EY
-1.8909005	UW B EY
-1.8687842	<s> F EY
-3.4053593	AE F EY
-2.7695158	D F EY
-1.3383089	SIL F EY
-3.5049891	L F EY
-3.2986321	EY F EY
-2.9960139	IH F EY
-2.996875	R F EY
-3.7345848	ER F EY
-2.6352246	AH F EY
-2.885705	T F EY
-2.063467	N F EY
-3.1283417	K F EY
-2.0826273	S F EY
-2.707696	M F EY
-3.0108633	IY F EY
-1.5808948	OW F EY
-3.5955315	AY F EY
-2.8690083	UW F EY
-3.4397254	W AO EY
-1.434905	<s> R EY
-1.7335942	D R EY
-1.3186027	SIL R EY
-3.4329913	L R EY
-0.9159042	B R EY
-2.9173207	IH R EY
-1.331452	F R EY
-3.4404411	AO R EY
-0.7195219	ER R EY
-1.0649326	AH R EY
-1.5969633	P R EY
-3.025905	EH R EY
-1.8898003	V R EY
-0.87463784	T R EY
-1.384906	N R EY
-1.2461014	Z R EY
-1.5631149	K R EY
-2.245906	S R EY
-2.0205178	UH R EY
-2.2967925	M R EY
-3.7428887	IY R EY
-3.5658967	AA R EY
-2.1873803	AY R EY
-2.1507096	UW R EY
-0.41273466	G R EY
-2.7970777	TH R EY
-0.8462059	CH R EY
-1.2361535	<s> ER EY
-3.6911223	HH ER EY
-1.769944	D ER EY
-1.050133	SIL ER EY
-1.6968145	L ER EY
-1.8542606	B ER EY
-2.8500936	F ER EY
-3.2880833	R ER EY
-1.2351285	P ER EY
-3.1967208	V ER EY
-2.409572	T ER EY
-1.6234848	N ER EY
-3.0766017	Z ER EY
-1.6576736	K ER EY
-2.6606617	S ER EY
-2.2022338	Y ER EY
-1.4379038	M ER EY
-2.0994196	IY ER EY
-4.4904056	DH ER EY
-2.5546505	G ER EY
-3.6368537	TH ER EY
-2.6383104	CH ER EY
-2.2964325	SH ER EY
-1.7180189	JH ER EY
-3.3299015	Y AH EY
-1.5410211	<s> P EY
-2.1601548	D P EY
-1.3332155	SIL P EY
-2.240168	L P EY
-3.7676263	EY P EY
-2.8420212	IH P EY
-3.3495429	R P EY
-1.9876337	ER P EY
-1.9007621	AH P EY
-2.235069	T P EY
-1.5046601	N P EY
-0.015505561	Z P EY
-1.9524308	K P EY
-1.6206264	S P EY
-1.6751838	M P EY
-2.2490191	IY P EY
-2.5040681	OW P EY
-3.5796742	AA P EY
-3.351325	AY P EY
-1.5143579	<s> V EY
-1.3354775	SIL V EY
-1.6531309	L V EY
-1.8015014	IH V EY
-1.4165107	R V EY
-1.0870793	ER V EY
-2.4580986	AH V EY
-4.60741	EH V EY
-1.1677297	N V EY
-4.358724	IY V EY
-3.1609263	OW V EY
-1.9976826	AA V EY
-2.5716138	AY V EY
-2.7451956	UW V EY
-1.3305407	<s> T EY
-4.994743	AE T EY
-1.8320785	D T EY
-1.379096	SIL T EY
-1.92926	L T EY
-0.07654802	B T EY
-1.9021465	IH T EY
-4.394368	F T EY
-3.5249486	AO T EY
-2.4118357	R T EY
-1.1969163	ER T EY
-1.7789457	AH T EY
-3.0944674	P T EY
-3.8771086	EH T EY
-1.3704399	V T EY
-2.011129	N T EY
-4.517664	AW T EY
-2.0187874	K T EY
-1.4684026	S T EY
-1.0915672	M T EY
-2.7741368	IY T EY
-2.0776615	OW T EY
-4.6119847	AA T EY
-3.8240905	AY T EY
-2.5007086	UW T EY
-2.9212906	NG T EY
-0.9708174	G T EY
-3.989793	SH T EY
-1.4380271	OY T EY
-1.4860115	<s> N EY
-4.944899	AE N EY
-3.4292142	D N EY
-1.2552378	SIL N EY
-2.5521276	L N EY
-4.4428506	EY N EY
-3.3231742	IH N EY
-2.0144043	R N EY
-2.3093593	ER N EY
-2.2671974	AH N EY
-2.7369916	EH N EY
-3.4832034	T N EY
-2.1108499	N N EY
-1.8727013	K N EY
-1.0680323	S N EY
-1.0115569	M N EY
-3.6518288	IY N EY
-3.2184715	OW N EY
-3.8023243	AA N EY
-3.7465014	AY N EY
-1.1783309	G N EY
-2.6383212	SH N EY
-0.80915654	<s> Z EY
-1.1065686	SIL Z EY
-4.4985995	L Z EY
-4.317894	EY Z EY
-2.7634473	IH Z EY
-2.5052056	AO Z EY
-2.048288	AH Z EY
-4.4005294	N Z EY
-2.6718473	OW Z EY
-3.348196	AY Z EY
-1.3106909	<s> K EY
-4.340451	AE K EY
-2.2544749	D K EY
-1.2852588	SIL K EY
-1.4142287	L K EY
-2.6175842	EY K EY
-1.5430205	IH K EY
-3.2441673	AO K EY
-1.6104921	R K EY
-2.1120532	ER K EY
-0.9183837	AH K EY
-3.2817633	EH K EY
-1.7497104	T K EY
-1.7636526	N K EY
-1.3538648	Z K EY
-0.10802617	K K EY
-1.3060952	S K EY
-3.2565029	UH K EY
-1.6649513	M K EY
-2.9166865	IY K EY
-1.5985821	OW K EY
-2.5275776	AA K EY
-4.113634	AY K EY
-1.6073692	UW K EY
-3.4281986	NG K EY
-2.1645284	SH K EY
-1.6002691	<s> S EY
-4.512321	AE S EY
-3.1900823	D S EY
-1.3206154	SIL S EY
-2.2595794	L S EY
-3.6526577	EY S EY
-2.9630423	IH S EY
-2.729852	F S EY
-1.8182695	R S EY
-1.4733824	ER S EY
-2.905619	AH S EY
-2.579623	P S EY
-2.6955748	EH S EY
-3.5157278	T S EY
-2.1413534	N S EY
-2.5264192	K S EY
